tree
version=v2
num_class=1
num_tree_per_iteration=1
label_index=0
max_feature_idx=7
objective=regression
feature_names=MedInc HouseAge AveRooms AveBedrms Population AveOccup Latitude Longitude
feature_infos=[0.49990000000000001:15.0001] [1:52] [0.88888888888888884:141.90909090909091] [0.33333333333333331:34.06666666666667] [3:35682] [0.69230769230769229:1243.3333333333333] [32.549999999999997:41.950000000000003] [-124.3:-114.31]
tree_sizes=2411 2482 2461 2499 2483 2477 2482 2492 2489 2491 2500 2492 2503 2493 2503 2498 2502 2497 2506 2483 2504 2517 2487 2494 2506 2500 2502 2510 2506 2494 2507 2510 2505 2483 2496 2512 2514 2534 2516 2513 2518 2489 2533 2545 2531 2519 2521 2517 2517 2511 2501 2518 2515 2526 2526 2532 2488 2525 2523 2519 2494 2519 2541 2507 2524 2486 2485 2522 2506 2526 2526 2518 2527 2535 2536 2499 2540 2531 2532 2515 2531 2517 2511 2517 2533 2490 2499 2491 2497 2519 2528 2510 2523 2538 2517 2490 2514 2497 2527 2521 2522 2545 2499 2510 2489 2523 2523 2530 2494 2539 2530 2512 2520 2501 2509 2520 2516 2545 2522 2531 2487 2521 2543 2514 2510 2523 2516 2495 2511 2511 2510 2527 2535 2526 2517 2509 2523 2524 2505 2509 2488 2531 2514 2510 2500 2514 2536 2527 2506 2513 2511 2496 2512 2510 2501 2513 2518 2501 2534 2539 2513 2510 2523 2507 2527 2501 2512 2527 2528 2535 2520 2523 2520 2544 2526 2519 2504 2516 2500 2527 2496 2510 2514 2505 2514 2502 2523 2524 2531 2523 2531 2525 2540 2537 2530 2496 2512 2505 2516 2530 2537 2510 2537 2517 2535 2514 2507 2517 2521 2513 2533 2538 2540 2515 2528 2515 2502 2502 2525 2525 2530 2530 2522 2529 2552 2521 2546 2533 2569 2507 2525 2511 2516 2547 2531 2551 2521 2526 2501 2508 2543 2491 2534 2517 2532 2543 2546 2548 2521 2512 2491 2519 2498 2541 2516 2527 2534 2523 2530 2521 2530 2548 2521 2530 2517 2525 2537 2543 2518 2524 2535 2541 2532 2535 2527 2551 2539 2543 2548 2531 2533 2524 2540 2520 2529 2545 2525 2562 2534 2549

Tree=0
num_leaves=31
num_cat=0
split_feature=0 0 5 0 5 2 0 6 7 5 0 0 5 0 6 7 5 6 7 5 0 0 5 6 5 7 6 6 6 6
split_gain=5408.63 1572 836.996 758.489 267.467 251.672 245.462 176.783 169.683 135.78 132.354 132.317 118.531 90.3799 80.6844 77.2821 65.3191 64.0601 111.184 60.9855 51.3854 49.0251 50.7023 44.8902 44.7471 43.3989 63.3707 43.0084 37.9329 37.687
threshold=5.292650000000001 3.0686000000000004 2.3416065588459305 7.6523000000000012 2.7433840538188918 4.1742857142857153 4.1098500000000007 37.945000000000007 -118.06499999999998 2.8458125169197452 6.3222500000000013 2.4589000000000003 2.8345785656851086 3.9014000000000002 37.935000000000009 -118.21499999999999 2.3067841409691634 37.945000000000007 -122.22499999999998 2.8050191530671147 9.1461500000000022 6.3792000000000009 2.2075365649356518 37.905000000000008 1.5609086740748734 -122.40499999999999 34.175000000000004 33.695000000000007 34.455000000000005 34.515000000000008
decision_type=2 2 2 2 2 2 2 2 2 2 2 2 2 2 2 2 2 2 2 2 2 2 2 2 2 2 2 2 2 2
left_child=1 5 7 4 21 9 17 8 13 14 -6 -7 23 25 15 24 -13 18 -4 -20 -5 22 -2 -8 -1 -3 -27 -10 -18 -11
right_child=3 2 6 20 10 11 12 -9 27 29 -12 16 -14 -15 -16 -17 28 -19 19 -21 -22 -23 -24 -25 -26 26 -28 -29 -30 -31
leaf_value=2.1340362992511936 2.1689924590381642 2.1446427157861647 2.0939457762846088 2.1694407906740958 2.0871447104578271 2.0094735404103998 2.0879254984760198 2.0485839720752108 2.0899052562912419 2.0354407061250863 2.1238151885129999 2.0524315315946744 2.058108105920605 2.1384183184284398 2.0172713079581817 2.0420344671256108 2.0361589392990656 2.0293050326859334 2.0582819503495617 2.0397162230345383 2.2003488783116301 2.1585959509614403 2.1236881811549013 2.0590327423845571 2.0733118785695099 2.1199539305728257 2.0797605456309953 2.049598565882393 2.0179470891493261 2.0120029996439603
leaf_count=33 73 60 130 291 685 1737 707 139 182 848 384 263 1175 367 102 231 464 504 679 1269 250 235 401 166 376 188 205 104 745 215
internal_value=0 -0.294044 0.0569673 1.38792 1.07245 -0.70533 -0.13876 0.784854 0.918441 -0.406605 0.756588 -0.873357 0.119772 1.14976 -0.0783259 0.0533187 -0.652776 -0.343824 -0.266251 -0.326006 2.42472 1.5487 1.36355 0.398874 0.314471 0.850941 0.730001 0.255208 -0.751025 -0.635752
internal_count=13208 10889 5875 2319 1778 5014 4630 1245 1106 1805 1069 3209 2048 820 742 640 1472 2582 2078 1948 541 709 474 873 409 453 393 286 1209 1063
shrinkage=1


Tree=1
num_leaves=31
num_cat=0
split_feature=0 0 5 0 5 0 1 2 6 0 0 0 5 0 2 5 1 7 5 6 7 7 5 6 5 5 1 5 0 1
split_gain=4881.28 1419.08 785.354 684.537 242.319 235.247 224.355 221.776 167.88 143.25 121.487 120.81 106.975 90.6535 84.353 80.5476 64.6482 56.1184 56.0058 52.6575 89.1204 65.6675 59.3994 59.3482 49.8557 47.7112 46.6255 46.86 46.3753 53.4776
threshold=5.292650000000001 3.0252500000000002 2.3416065588459305 7.6523000000000012 2.6548744295997047 4.1098500000000007 19.500000000000004 4.3105118551499961 37.955000000000005 2.2127500000000002 3.9014000000000002 6.3222500000000013 2.8345785656851086 2.4184000000000005 3.2976861222033809 2.644907249698059 46.500000000000007 -122.35499999999998 2.2994678853709698 34.435000000000009 -121.61499999999999 -117.79499999999999 3.0667341430499331 37.925000000000004 1.9524616626311544 2.0149193525952387 16.500000000000004 2.1657060614300971 9.1461500000000022 29.500000000000004
decision_type=2 2 2 2 2 2 2 2 2 2 2 2 2 2 2 2 2 2 2 2 2 2 2 2 2 2 2 2 2 2
left_child=1 7 6 4 26 16 -3 9 10 14 17 -6 -7 -9 -1 -11 19 -8 -15 21 23 22 -4 -21 -12 -19 -2 -28 29 -5
right_child=3 2 5 28 11 12 8 13 -10 15 24 -13 -14 18 -16 -17 -18 25 -20 20 -22 -23 -24 -25 -26 -27 27 -29 -30 -31
leaf_value=-0.012440451507243407 0.047842560834977607 0.0036874483147403231 0.0089874177023119405 0.084773323304123349 0.026165482854160066 0.018946528312243961 0.085055180952425993 -0.051620762474393282 -0.013752940721283463 0.010776343174006197 0.10822191348717619 0.059348146299192522 -0.0041607639420327995 -0.011736767413362541 -0.042498502384221926 -0.019249152217525989 0.0096764199675100169 0.053167564745852228 -0.038476250738823076 0.0052275132142411652 -0.039971808614552823 -0.028709909988457669 -0.016310527398622633 -0.028461784935020402 0.067234471536198256 0.019010080317125578 0.11726760538830155 0.076666081176270232 0.130967969840765 0.12890036422927101
leaf_count=332 109 360 419 180 767 873 63 1493 92 378 108 427 1175 239 786 546 213 186 1084 258 610 425 520 265 237 227 87 388 250 111
internal_value=0 -0.279342 0.0446567 1.31853 1.01883 -0.141998 0.742304 -0.681572 1.00592 -0.430662 1.14946 0.760646 0.113783 -0.863517 -0.67145 -0.13932 -0.335298 0.821972 -0.672915 -0.380408 -0.539744 -0.248057 -0.100442 -0.236852 1.60131 0.687867 1.5467 1.68205 2.30348 2.03211
internal_count=13208 10889 6031 2319 1778 4758 1273 4858 913 2042 821 1194 2048 2816 1118 924 2710 476 1323 2497 1133 1364 939 523 345 413 584 475 541 291
shrinkage=0.05


Tree=2
num_leaves=31
num_cat=0
split_feature=2 5 6 6 7 7 6 7 6 5 7 7 6 7 7 2 5 6 3 2 6 7 1 2 6 7 7 6 7 6
split_gain=1766.09 950.664 686.294 564.813 397.849 327.054 258.351 396.741 555.948 287.324 263.708 179.928 285.72 282.572 194.338 170.539 161.781 117.347 108.04 94.9193 90.2844 101.92 88.1799 87.5606 84.7741 81.8498 80.0633 78.5453 78.0994 70.4015
threshold=6.3645014518779908 2.4479787762634868 37.945000000000007 37.985000000000007 -117.62499999999999 -117.75499999999998 37.925000000000004 -121.65499999999999 34.665000000000006 3.1752201068552943 -117.645 -122.40499999999999 34.595000000000006 -121.70499999999998 -118.36499999999999 7.3020337389055436 2.9425256138491438 34.155000000000008 1.4608493397358946 5.4786779414439 33.695000000000007 -117.175 26.500000000000004 5.3946998946998956 37.605000000000011 -117.79499999999999 -120.40499999999999 33.545000000000009 -117.145 33.625000000000007
decision_type=2 2 2 2 2 2 2 2 2 2 2 2 2 2 2 2 2 2 2 2 2 2 2 2 2 2 2 2 2 2
left_child=1 2 5 4 15 11 7 23 9 10 19 -1 14 24 17 16 -2 -13 22 -9 21 -6 -17 -3 -14 -11 -10 28 -7 -16
right_child=3 6 -4 -5 20 27 -8 8 26 25 -12 12 13 -15 29 18 -18 -19 -20 -21 -22 -23 -24 -25 -26 -27 -28 -29 -30 -31
leaf_value=0.081422308724677595 0.068660616137210514 0.002512227012376099 -0.032467354111277553 -0.012196786278184968 0.072894879536118437 0.024268703130031183 -0.039221916415838214 0.0035325498144844814 -0.033474096292488618 -0.018499787162190934 -0.027797098142787593 0.091559260638602369 0.045779037347811059 -0.039840924526602706 0.10807319255890671 0.075857342082564158 0.026678772133750191 0.036307232476725286 0.010691545191738341 0.029573230125030166 -0.016322950425660912 0.0043665945175148197 0.11888034018603238 0.031767600250896068 0.0073814892029235874 -0.040748053751325064 -0.061413031541367714 -0.038735536974567324 -0.026205285701644244 0.025383973981218375
leaf_count=193 518 664 612 434 86 191 1192 1070 406 1683 562 293 289 221 27 328 412 143 45 520 197 147 187 416 286 548 696 162 128 552
internal_value=0 -0.169148 0.299228 0.786343 1.01923 0.532841 -0.356148 -0.278384 -0.387468 -0.227831 0.0328619 0.710575 0.612757 0.164231 0.964507 1.26377 1.00124 1.46875 1.69975 0.24098 0.171871 0.593206 1.82959 0.275619 0.533609 -0.479292 -1.02239 -0.207655 0.0803163 0.584799
internal_count=13208 10854 3097 2354 1920 2485 7757 6565 5485 4383 2152 2004 1811 796 1015 1490 930 436 560 1590 430 233 515 1080 575 2231 1102 481 319 579
shrinkage=0.05


Tree=3
num_leaves=31
num_cat=0
split_feature=0 0 0 5 5 2 1 0 6 0 5 0 0 5 6 7 7 6 6 7 7 5 0 1 5 7 5 6 1 5
split_gain=4106.59 1126.29 658.865 623.877 240.586 183.986 182.487 168.388 132.992 110.652 94.1116 92.6864 85.2973 78.1922 60.0832 66.5828 54.6691 64.0152 63.3774 59.6651 57.8669 55.4157 49.2353 49.2204 60.6788 47.6913 43.61 42.3149 40.7927 40.1825
threshold=5.1453500000000005 3.0252500000000002 6.8377000000000008 2.3416065588459305 2.7433840538188918 4.1742857142857153 20.500000000000004 4.1098500000000007 37.935000000000009 7.8283000000000014 3.1584238253951189 2.5127000000000006 3.9014000000000002 2.8345785656851086 37.925000000000004 -118.21499999999999 -122.38499999999998 34.435000000000009 38.305000000000007 -117.79499999999999 -121.61499999999999 3.0004492362982931 5.7116000000000016 19.500000000000004 2.2075365649356518 -122.31499999999998 2.2367956109354661 37.925000000000004 26.500000000000004 2.0304710059825637
decision_type=2 2 2 2 2 2 2 2 2 2 2 2 2 2 2 2 2 2 2 2 2 2 2 2 2 2 2 2 2 2
left_child=1 5 4 6 23 10 -3 16 12 28 14 -7 25 -9 15 -1 18 19 -5 21 27 -18 -6 -2 -25 -8 -13 -19 -4 -27
right_child=2 3 9 7 22 11 8 13 -10 -11 -12 26 -14 -15 -16 -17 17 20 -20 -21 -22 -23 -24 24 -26 29 -28 -29 -30 -31
leaf_value=0.0086617207807992355 0.039779708978046557 0.0033943254032119119 0.057866947495215128 0.031963123981323505 0.011675774573004279 -0.04580413281318766 0.078171087646713627 0.016215324546394745 -0.010694287128825771 0.10883027326882898 -0.030216615733339842 -0.005595700587578566 0.07240817243346391 -0.0045293829166145544 -0.041245934650697542 -0.021655209229966173 0.0092900899784074415 0.00014880451732514433 -0.021199211820563543 -0.026144173768459195 -0.036417611878781689 -0.014219099349903678 0.033761438748600173 0.1073365781665518 0.061952397983959621 0.048833535121552446 -0.03203817903319002 -0.033131718060375487 0.09285234619173216 0.016729651861914517
leaf_count=503 186 368 208 126 460 1851 65 796 94 487 871 183 313 1058 113 283 445 257 101 431 624 574 559 89 427 185 1054 152 139 206
internal_value=0 -0.271987 1.13967 0.0257208 0.786161 -0.627117 0.657502 -0.144683 0.908925 1.86914 -0.370068 -0.774454 1.04617 0.0875438 -0.143101 -0.0450783 -0.303557 -0.346502 0.166188 -0.210977 -0.536735 -0.0790515 0.475829 1.23663 1.39561 0.770247 -0.562526 -0.24439 1.43763 0.638389
internal_count=13208 10653 2555 5795 1721 4858 1231 4564 863 834 1770 3088 769 1854 899 786 2710 2483 227 1450 1033 1019 1019 702 516 456 1237 409 347 391
shrinkage=0.05


Tree=4
num_leaves=31
num_cat=0
split_feature=2 5 6 3 2 7 6 7 6 7 5 1 7 6 7 7 6 6 2 2 6 6 7 7 6 7 2 1 5 7
split_gain=1441.67 792.59 570.627 475.55 313.226 274.722 217.768 334.59 500.467 245.078 265.163 172.639 151.869 258.263 225.186 166.981 100.645 86.0561 78.7978 77.497 72.0233 68.3015 76.6196 68.1201 67.9572 67.6924 61.7988 58.2524 57.7876 53.4835
threshold=6.3645014518779908 2.4479787762634868 37.945000000000007 1.2198377538691678 7.5700368955919481 -117.75499999999998 37.925000000000004 -121.45499999999998 34.665000000000006 -117.645 3.1752201068552943 30.500000000000004 -122.35499999999998 34.595000000000006 -121.70499999999998 -118.36499999999999 34.155000000000008 37.985000000000007 5.6144734948206141 5.3946998946998956 37.585000000000008 37.965000000000011 -117.62499999999999 -122.29499999999999 33.545000000000009 -117.145 5.5511074737062067 26.500000000000004 2.5513588659147874 -120.40499999999999
decision_type=2 2 2 2 2 2 2 2 2 2 2 2 2 2 2 2 2 2 2 2 2 2 2 2 2 2 2 2 2 2
left_child=1 2 5 4 11 12 7 19 9 10 18 21 -1 15 20 16 -14 -13 -9 23 -15 22 28 -3 25 -7 -17 -6 -2 -10
right_child=3 6 -4 -5 27 24 -8 8 29 -11 -12 17 13 14 -16 26 -18 -19 -20 -21 -22 -23 -24 -25 -26 -27 -28 -29 -30 -31
leaf_value=0.072036881837564681 0.081302691009682682 0.027559268868523331 -0.029505636069955599 -0.010767331573062625 0.069720607912152274 0.022707637942381478 -0.035839385905103043 0.0043204046029446568 -0.033082789883766374 -0.031415278539465984 -0.017064264756873709 0.070276081186365566 0.084471480833817877 0.040767975590851331 -0.036693524372051749 0.020911226634969863 0.033302437777507243 -0.006091084176810777 0.029306694948214574 0.028881427640144827 0.0046064018624558771 -0.0018172655824864614 0.0026341337871149577 -0.0078532097936746849 -0.035913236848550079 -0.024283259920048296 0.072655336942810275 0.10743303902280064 0.033508459562942426 -0.056609064659060938
leaf_count=217 71 187 612 449 298 191 1192 1156 370 1042 1751 368 293 281 221 514 143 41 434 433 270 202 190 496 162 128 65 156 579 696
internal_value=0 -0.152826 0.274841 0.710458 0.928666 0.48786 -0.323573 -0.252177 -0.354345 -0.204886 -0.0728287 0.701849 0.650755 0.554825 0.118919 0.886372 1.35378 1.25241 0.222811 0.246668 0.460963 0.485744 0.611295 0.0368489 -0.190813 0.0770471 0.534403 1.65358 0.774581 -0.968866
internal_count=13208 10854 3097 2354 1905 2485 7757 6565 5449 4383 3341 1451 2004 1787 772 1015 436 409 1590 1116 551 1042 840 683 481 319 579 454 650 1066
shrinkage=0.05


Tree=5
num_leaves=31
num_cat=0
split_feature=0 0 5 0 5 0 5 1 5 0 2 2 0 7 1 0 5 5 7 0 7 1 1 0 3 4 7 7 2 0
split_gain=3388.5 1230.01 567.246 391.742 196.889 167.054 138.762 136.929 116.75 96.0502 101.016 92.1533 67.9873 65.2806 58.6524 58.6045 58.1711 47.6723 37.653 35.3968 34.747 31.0998 30.8676 29.0491 25.5328 25.2531 24.3689 23.4092 22.5817 22.1762
threshold=5.5878500000000004 3.1915500000000003 2.4011771112761759 7.6523000000000012 2.1548503344297041 4.5297000000000009 2.948742276066755 21.500000000000004 1.965606861525705 2.2127500000000002 4.4210661521954444 3.506589035151165 2.5667500000000003 -122.38499999999998 26.500000000000004 4.0778000000000008 2.9354259570278569 2.6612071278022613 -122.31499999999998 6.5313500000000007 -122.38499999999998 18.500000000000004 31.500000000000004 9.1461500000000022 1.0461130074704124 202.50000000000003 -122.55499999999999 -118.22499999999998 5.055245552917965 3.8790000000000004
decision_type=2 2 2 2 2 2 2 2 2 2 2 2 2 2 2 2 2 2 2 2 2 2 2 2 2 2 2 2 2 2
left_child=1 4 7 6 12 13 14 -3 29 11 20 -6 -1 26 -2 28 22 -15 -14 -8 -11 23 -7 -5 -16 -23 -4 -24 -10 -9
right_child=3 2 5 21 9 16 19 8 15 10 -12 -13 18 17 24 -17 -18 -19 -20 -21 -22 25 27 -25 -26 -27 -28 -29 -30 -31
leaf_value=-0.016785171569103106 0.046125098235899789 0.010568981326781633 -0.0057903658839340288 0.065268416210968544 -0.016864172300475457 0.010833084185799457 0.020532642285658282 0.060711464388095632 0.031440957046858536 0.033590224316904851 -0.03253134158033117 -0.045527504637496531 0.061506698472159255 0.00019994350268259751 0.065709306032493198 0.049550175291979637 0.0010061020423042068 -0.015948726154645439 0.0067045621188978367 0.045848227574935903 -0.014569819372726193 0.051130912415683273 0.04115953361521571 0.10729501842288301 0.092447517916935604 0.10892509048761323 0.027276168352980541 0.013306432296592488 0.0068566077363268448 0.091897419833134264
leaf_count=491 346 445 89 115 344 371 396 122 217 39 1830 1517 35 585 290 334 783 2089 300 212 944 20 223 64 129 344 149 114 164 107
internal_value=0 -0.210112 0.111503 1.22815 -0.548801 -0.0642687 0.943794 0.668682 0.884253 -0.628339 -0.51174 -0.804584 -0.0987268 -0.203648 1.22721 0.685229 0.207946 -0.248317 0.248603 0.587196 -0.253182 1.94717 0.415666 1.60589 1.47883 2.11499 0.298219 0.634748 0.417174 1.50566
internal_count=13208 11292 5792 1916 5500 4403 1373 1389 944 4674 2813 1861 826 2912 765 715 1491 2674 335 608 983 543 708 179 419 364 238 337 381 229
shrinkage=0.05


Tree=6
num_leaves=31
num_cat=0
split_feature=0 0 0 5 5 2 0 7 0 6 7 5 6 6 7 2 0 0 7 7 6 5 0 5 6 0 5 5 7 6
split_gain=3066.86 825.011 614.042 466.766 197.044 149.684 106.113 101.837 98.005 87.7729 76.7882 75.4361 80.3279 73.8832 60.7874 59.9448 58.3481 56.619 49.901 44.5526 84.1177 40.0621 33.7848 33.7803 31.0693 30.7113 29.8994 29.0188 24.9453 24.4522
threshold=4.9631500000000006 3.0686000000000004 6.7612500000000013 2.2994678853709698 2.5947212249490947 4.3105118551499961 2.2288000000000006 -122.27499999999999 7.9889500000000009 38.015000000000008 -122.35499999999998 2.8404733413109962 37.605000000000011 37.905000000000008 -122.40499999999999 3.506589035151165 5.7116000000000016 2.3681500000000004 -117.68499999999999 -117.895 34.165000000000006 2.0304710059825637 5.5878500000000004 3.0147970047457706 38.745000000000012 3.8382500000000008 2.8619042662688368 2.2994678853709698 -118.30499999999999 34.455000000000005
decision_type=2 2 2 2 2 2 2 2 2 2 2 2 2 2 2 2 2 2 2 2 2 2 2 2 2 2 2 2 2 2
left_child=1 5 4 9 22 6 15 13 26 10 -3 12 18 -5 -8 -1 -6 -7 25 20 28 -16 -2 -18 -15 -9 -4 -19 -12 -13
right_child=2 3 8 7 16 17 14 11 -10 -11 19 29 -14 24 21 -17 23 27 -20 -21 -22 -23 -24 -25 -26 -27 -28 -29 -30 -31
leaf_value=-0.013567360296688175 0.042975856709914904 0.071565958282859762 0.075738837218478974 0.036252879229290151 0.011284471192173904 -0.042314914988762511 0.046286597782401025 0.00095777491916542064 0.09677685950027437 -0.013988404505296934 0.065422612558373949 -0.011392412961081405 -0.019154070709155268 0.0065736213755546577 0.014733354548351237 -0.036890396033748239 0.042934632087010684 -0.012944420097814331 -0.014539704528511483 0.0078562105384965743 0.01786102131025839 -0.012979533947193875 0.067037066472300774 0.020204943184620221 -0.035593017498994697 0.019261569137814002 0.049511957166770711 -0.031354113212611404 0.036550852849940994 -0.02257648822362629
leaf_count=456 300 129 230 225 804 1348 54 411 441 98 196 1428 439 177 157 696 322 257 237 177 313 770 284 332 58 518 206 1281 121 743
internal_value=0 -0.258059 0.903289 0.0182831 0.602713 -0.54822 -0.347342 -0.128754 1.60315 0.620651 0.714926 -0.182871 -0.0184848 0.31548 -0.10564 -0.553167 0.406114 -0.696686 0.118786 0.60041 0.724952 -0.16572 1.09354 0.62792 -0.0766693 0.223275 1.26694 -0.565557 1.08804 -0.304401
internal_count=13208 10289 2919 5270 2042 5019 2133 4236 877 1034 936 3776 1605 460 981 1152 1458 2886 1166 807 630 927 584 654 235 929 436 1538 317 2171
shrinkage=0.05


Tree=7
num_leaves=31
num_cat=0
split_feature=0 0 0 7 0 2 6 6 1 0 7 6 7 7 6 6 1 0 2 6 7 7 6 7 6 7 6 7 6 7
split_gain=2767.84 745.859 558.369 182.845 142.269 138.983 127.2 115.602 113.381 105.642 104.566 73.1456 202.506 120.41 104.396 62.8752 62.6486 58.8372 58.7603 57.7764 53.2174 50.2805 48.7199 39.787 42.9946 36.7689 33.2608 44.8568 32.7615 35.7791
threshold=4.9631500000000006 3.1261000000000005 6.3222500000000013 -122.35499999999998 7.8283000000000014 4.3105118551499961 37.935000000000009 38.105000000000011 36.500000000000007 2.3336000000000001 -117.75499999999998 34.455000000000005 -121.30499999999999 -118.31499999999998 34.165000000000006 33.835000000000008 25.500000000000004 2.3681500000000004 3.506589035151165 37.765000000000008 -122.31499999999998 -117.145 33.645000000000003 -118.37499999999999 34.055000000000007 -119.26499999999999 37.955000000000005 -122.01499999999999 37.585000000000008 -122.10499999999998
decision_type=2 2 2 2 2 2 2 2 2 2 2 2 2 2 2 2 2 2 2 2 2 2 2 2 2 2 2 2 2 2
left_child=1 5 8 7 16 9 10 19 26 18 11 13 28 14 23 21 -4 -7 -1 -3 -11 -12 -15 -5 -25 -16 27 -2 29 -13
right_child=2 3 4 6 -6 17 -8 -9 -10 20 15 12 -14 22 25 -17 -18 -19 -20 -21 -22 -23 -24 24 -26 -27 -28 -29 -30 -31
leaf_value=-0.011786382619547658 0.047575331838705985 0.030068256857795822 0.041926478862771954 0.062192701671870881 0.090236078292727021 -0.040199169091535224 -0.023061063292162114 -0.0026041599694168666 0.054095320344668921 0.040346934604740731 0.0134648541381968 0.053470953868728292 -0.02976288446766083 0.077884060463735041 0.052418200150132183 -0.032444780846555277 0.072892693859757857 -0.026200915866601115 -0.033749468881422856 0.072328918092230812 -0.0062673080480379062 -0.018088447675298033 0.0010774485547316223 0.013041802286738303 0.066561585645777757 0.0011929799409183602 0.00013350204535527156 0.018965177464658499 -0.0013522017665406449 0.014762362696808607
leaf_count=500 156 204 392 193 491 1348 608 182 283 66 232 71 466 21 40 304 280 1694 779 134 847 277 1227 123 54 282 192 1125 262 375
internal_value=0 -0.245156 0.858124 0.0288111 1.39555 -0.509753 -0.0355901 0.590463 0.502189 -0.317788 0.0303085 0.113686 -0.0833298 0.232911 0.56748 -0.28905 1.09658 -0.648079 -0.503269 0.93645 -0.0579521 -0.0741318 0.0473974 0.929819 0.587397 0.151127 0.390811 0.448986 0.253617 0.41849
internal_count=13208 10289 2919 5055 1163 5234 4535 520 1756 2192 3927 3114 1174 1940 692 813 672 3042 1279 338 913 509 1248 370 177 322 1473 1281 708 446
shrinkage=0.05


Tree=8
num_leaves=31
num_cat=0
split_feature=0 0 5 0 5 0 6 1 1 6 5 6 1 0 1 5 1 0 5 6 5 1 5 6 0 0 1 0 2 1
split_gain=2507.91 908.531 441.576 287.014 160.615 127.152 118.625 113.483 109.497 109.318 68.6069 60.9128 55.2381 51.433 47.5352 46.9169 45.3992 41.385 36.9803 35.7264 33.5812 27.4604 27.1467 29.5046 26.8949 26.4778 26.3114 24.9285 24.5032 23.8885
threshold=5.5878500000000004 3.1915500000000003 2.4011771112761759 7.6523000000000012 2.1548503344297041 4.5297000000000009 34.455000000000005 19.500000000000004 27.500000000000004 37.995000000000012 1.965606861525705 37.945000000000007 27.500000000000004 2.5411000000000006 45.500000000000007 2.973738656133917 51.500000000000007 4.0778000000000008 2.6548744295997047 34.015000000000008 3.457417582417583 18.500000000000004 2.8945796827728523 34.455000000000005 6.3222500000000013 2.1834500000000006 31.500000000000004 9.1461500000000022 2.7723285486443388 31.500000000000004
decision_type=2 2 2 2 2 2 2 2 2 2 2 2 2 2 2 2 2 2 2 2 2 2 2 2 2 2 2 2 2 2
left_child=1 4 7 8 11 14 19 -3 18 10 29 12 -1 28 22 26 -15 -12 -2 25 -10 27 23 -4 -20 -6 -7 -5 -8 -9
right_child=3 2 5 21 6 15 13 9 20 -11 17 -13 -14 16 -16 -17 -18 -19 24 -21 -22 -23 -24 -25 -26 -27 -28 -29 -30 -31
leaf_value=-0.010405233730866671 0.050854551100343384 0.0061164192589833414 0.0036655145775357106 0.053647697224565173 -0.033325004870040531 0.0088608795701321397 0.01021561253329982 0.048973817951628008 0.062560743416248954 -0.012026578338569677 0.023179764582748539 -0.02802403003830068 0.01909046690136142 -0.028905428743298142 0.011885949413784059 -0.00029994640120355062 0.015587198718252485 0.048184671639699091 0.016336294760852531 -0.011681475972590189 -0.00065782411362637176 0.091486681185171503 -0.015406266818937669 -0.012425667783260088 0.035866360902217599 -0.018548161787984914 0.027357170532201675 0.092579620960168543 -0.041815851957182487 0.080208490942346153
leaf_count=321 174 381 516 115 503 414 23 112 465 98 345 191 314 954 248 718 61 318 391 974 22 364 1512 636 321 763 359 64 1396 135
internal_value=0 -0.180756 0.095653 1.05659 -0.471839 -0.0594304 -0.543677 0.587253 0.813191 0.762983 0.871054 -0.0653332 0.0836008 -0.696507 -0.181029 0.178059 -0.52463 0.703461 0.603821 -0.377611 1.1941 1.67203 -0.220012 -0.104363 0.502826 -0.488384 0.34902 1.35135 -0.81945 1.32091
internal_count=13208 11292 5792 1916 5500 4403 4674 1389 1373 1008 910 826 635 2434 2912 1491 1015 663 886 2240 487 543 2664 1152 712 1266 773 179 1419 247
shrinkage=0.05


Tree=9
num_leaves=31
num_cat=0
split_feature=0 0 0 5 5 5 0 6 7 7 6 7 6 7 6 5 5 5 6 7 6 7 7 5 7 6 6 7 7 6
split_gain=2269.03 589.851 489.969 345.853 166.054 123.474 115.326 101.884 90.5494 78.2575 84.8445 65.7697 64.3317 61.0018 54.625 51.7047 48.8299 45.1668 45.074 59.0809 43.2621 50.7476 41.9411 41.1266 36.6257 50.742 35.5345 41.1047 36.1586 32.2222
threshold=4.5940500000000002 6.3222500000000013 3.0686000000000004 2.2994678853709698 2.588525716765933 2.1430194805194809 7.8283000000000014 34.455000000000005 -117.81499999999998 -121.65499999999999 38.665000000000006 -122.35499999999998 37.975000000000001 -122.35499999999998 38.745000000000012 2.6739272809394765 3.4417504218325878 2.8619042662688368 37.945000000000007 -118.24499999999999 34.885000000000012 -120.645 -122.38499999999998 3.0004492362982931 -117.24499999999999 34.165000000000006 34.455000000000005 -121.82499999999997 -118.01499999999999 37.995000000000012
decision_type=2 2 2 2 2 2 2 2 2 2 2 2 2 2 2 2 2 2 2 2 2 2 2 2 2 2 2 2 2 2
left_child=2 4 5 12 29 18 17 8 16 10 22 14 13 -4 -5 26 -7 -3 19 20 -1 -22 -9 -6 25 -15 28 -28 -13 -2
right_child=1 6 3 11 23 7 -8 9 -10 -11 -12 15 -14 24 -16 -17 -18 -19 -20 -21 21 -23 -24 -25 -26 -27 27 -29 -30 -31
leaf_value=0.041890786044470073 0.043327271468526649 0.062439655255704357 0.064821715563519219 0.022105672998699331 0.019668370618462123 -0.00043470846091890164 0.081508875979644554 0.017397402085927233 -0.033412169154844774 -0.041244876106897109 -0.042825714532734906 0.02265168143170623 -0.011222318353728184 0.041739107900201369 -0.033712533990351054 -0.013995152351931739 -0.019588188001047974 0.036512447790178211 -0.026683617849438186 -0.015762251362131673 0.015448384365707541 -0.048946812552841085 -0.01709103034072058 0.0041995507254769674 -0.0059288136487131021 0.013421809454274521 0.0059051450460491312 -0.023773021945930218 -0.0047795198306185491 0.0047434685357167564
leaf_count=112 653 340 113 279 807 595 491 112 690 1419 307 248 103 362 52 2365 755 332 174 246 157 38 414 919 83 281 218 251 233 59
internal_value=0 0.675795 -0.254957 -0.0187527 0.396262 -0.470877 1.26178 -0.53543 -0.37355 -0.682071 -0.438768 -0.15831 0.5214 0.612964 0.266733 -0.20075 -0.222929 0.992608 -0.0897738 0.0498977 0.342488 0.0579915 -0.19495 0.228642 0.506584 0.587281 -0.00369933 -0.199561 0.187276 0.8026
internal_count=13208 3601 9607 4588 2438 5019 1163 4292 2040 2252 833 3646 942 839 331 3315 1350 672 727 553 307 195 526 1726 726 643 950 469 481 712
shrinkage=0.05


Tree=10
num_leaves=31
num_cat=0
split_feature=0 0 0 5 5 1 2 0 0 1 6 0 5 5 5 1 2 5 1 5 1 6 6 0 0 6 6 0 6 1
split_gain=2074.63 566.407 340.489 331.726 123.351 120.415 110.664 106.375 88.9701 94.7271 88.9577 62.0455 59.5886 45.9613 42.6796 40.8342 40.6717 36.8337 36.2636 33.6476 29.6675 29.6298 29.6097 27.0697 26.176 22.8887 23.0577 21.7053 21.4123 20.1271
threshold=5.0916000000000006 2.8316500000000002 6.3222500000000013 2.3067841409691634 2.5947212249490947 24.500000000000004 3.8006021773048411 3.8382500000000008 8.6989000000000019 26.500000000000004 37.82500000000001 1.9645000000000001 2.9076883227176222 2.2915960451977404 1.9180132065629745 19.500000000000004 5.1921505781799908 3.1091980792520268 41.500000000000007 2.0596232770534795 36.500000000000007 34.455000000000005 37.975000000000001 3.4359500000000005 3.8133000000000004 37.945000000000007 33.995000000000012 3.7280500000000005 37.925000000000004 16.500000000000004
decision_type=2 2 2 2 2 2 2 2 2 2 2 2 2 2 2 2 2 2 2 2 2 2 2 2 2 2 2 2 2 2
left_child=1 6 4 5 15 27 17 16 9 -4 14 -8 18 22 23 -2 -5 25 28 -17 -6 -15 -13 -7 -16 26 -1 -3 -9 -29
right_child=2 3 8 7 20 10 11 12 -10 -11 -12 13 -14 21 24 19 -18 -19 -20 -21 -22 -23 -24 -25 -26 -27 -28 29 -30 -31
leaf_value=-0.012980676226117869 0.022009708238517677 -0.007329652642860539 0.038050303544248959 -0.0074614683034081551 0.011482947837916728 0.040873067912814975 -0.039003656584540129 0.0095954806636831154 0.08324032939128477 0.071193980983617969 -0.00019612186080000054 0.00016166621520669457 -0.0061852402089336922 -0.019770113038595345 0.024646451494793706 0.092011276764028219 -0.019992556041870866 -0.01901973340014192 0.027850829874250024 0.047792766183953395 0.040360647565400115 -0.033080262064350663 -0.028034895170721219 0.077858370178239017 0.050048963016092352 -0.03214914659403411 0.010978254329113823 0.0013288102205131801 -0.0079205812396505836 0.031650428633927613
leaf_count=149 135 254 533 1432 962 88 1007 713 292 362 150 282 1239 713 280 51 1182 554 220 275 98 1011 139 113 159 51 308 131 231 94
internal_value=0 -0.197574 0.784107 -0.00740932 0.470859 0.449357 -0.481241 -0.122944 1.1855 1.02912 0.68922 -0.575306 0.0289271 -0.479175 0.851676 0.902685 -0.262556 -0.202059 0.191394 1.09421 0.283055 -0.551511 -0.182958 1.23332 0.676938 -0.00757578 0.063334 0.0537571 0.106185 0.27993
internal_count=13208 10500 2708 6286 1521 1269 4214 5017 1187 895 790 3152 2403 2145 640 461 2614 1062 1164 326 1060 1724 421 201 439 508 457 479 944 225
shrinkage=0.05


Tree=11
num_leaves=31
num_cat=0
split_feature=0 0 0 5 5 1 2 0 0 1 1 0 1 5 2 5 5 5 0 1 5 4 7 0 0 7 4 2 7 2
split_gain=1874.29 477.405 352.364 294.228 120.759 102.349 100.407 83.7079 80.2955 85.4912 68.8567 48.684 46.6189 43.6089 42.4595 39.6975 36.8576 34.94 34.1985 32.5943 29.4373 23.7301 22.9178 25.6976 21.0514 18.8913 18.2438 16.2161 16.0582 15.1755
threshold=4.9631500000000006 2.8316500000000002 6.3222500000000013 2.2994678853709698 2.5829130445801765 24.500000000000004 3.9460790052262831 3.6567500000000002 8.6989000000000019 26.500000000000004 42.500000000000007 2.2609500000000007 21.500000000000004 2.0470840156190957 5.1246096220265613 3.1014239383804605 2.0596232770534795 2.8560278195374553 3.4359500000000005 36.500000000000007 2.2994678853709698 942.50000000000011 -117.145 1.8208500000000003 3.2441000000000009 -122.29499999999999 253.50000000000003 4.6645318382714036 -122.31499999999998 3.0335866403977865
decision_type=2 2 2 2 2 2 2 2 2 2 2 2 2 2 2 2 2 2 2 2 2 2 2 2 2 2 2 2 2 2
left_child=1 6 4 5 12 24 15 14 9 -4 17 -8 -2 18 -5 22 -14 -9 28 -6 -13 -15 23 29 -3 -12 -10 -22 -7 -1
right_child=2 3 8 7 19 13 11 10 26 -11 25 20 16 21 -16 -17 -18 -19 -20 -21 27 -23 -24 -25 -26 -27 -28 -29 -30 -31
leaf_value=0.0039895826071227455 0.019837828381654307 -0.015996925280145978 0.036147788555866305 -0.0072151663528084754 0.010188805049072375 0.069983542189002032 -0.034188505399273171 0.0037795500074835489 0.032988365441560745 0.067634282335227378 0.036233092463971696 -0.0065053380462546453 0.088585328285036416 0.0085973445362660123 -0.021228353222721104 -0.01960137080349442 0.044845885860282375 -0.0087139295939280079 0.059668749719912741 0.03698789213150222 -0.016211903558540484 0.033006775340030658 -0.027928754669924578 0.010672099586573844 0.0087688668576598218 0.011752670465564703 0.082467279187403625 -0.028973520409389632 0.021999558259952159 -0.022590066768344522
leaf_count=92 164 115 533 1167 1140 20 1519 948 20 362 121 272 58 191 1007 675 284 1366 192 126 369 208 75 318 338 226 272 765 136 129
internal_value=0 -0.198897 0.704593 -0.0185492 0.422159 0.424662 -0.457179 -0.12855 1.12622 0.977662 -0.00961974 -0.559649 0.835082 0.652089 -0.274122 -0.224654 1.04527 -0.071912 0.910805 0.25712 -0.425553 0.426441 -0.0406517 0.0314156 0.0496349 0.405781 1.58157 -0.496419 0.563027 -0.230505
internal_count=13208 10249 2959 6035 1772 1200 4214 4835 1187 895 2661 2925 506 747 2174 1289 342 2314 348 1266 1406 399 614 539 453 347 292 1134 156 221
shrinkage=0.05


Tree=12
num_leaves=31
num_cat=0
split_feature=2 5 6 6 7 7 6 7 6 7 6 7 5 7 2 5 1 6 7 6 7 7 6 7 6 1 7 7 6 7
split_gain=604.039 448.412 288.866 275.917 200.849 154.638 124.142 152.555 115.163 180.645 295.047 165.761 134.006 89.4218 82.2307 69.1354 61.7469 60.0225 68.1551 54.3856 66.5373 48.5802 61.4582 47.725 64.5153 46.0593 36.4123 33.2246 30.7962 103.254
threshold=6.2260493636247514 2.4538992737230627 37.925000000000004 37.995000000000012 -117.62499999999999 -118.09499999999998 34.135000000000012 -122.33499999999999 37.925000000000004 -121.45499999999998 34.665000000000006 -117.77499999999999 3.3794969104267021 -118.36499999999999 6.9938275127444269 2.6679217881052746 27.500000000000004 33.645000000000003 -117.175 33.695000000000007 -117.23499999999999 -118.35499999999998 34.165000000000006 -122.33499999999999 37.585000000000008 20.500000000000004 -120.40499999999999 -121.91499999999998 34.595000000000006 -121.45499999999998
decision_type=2 2 2 2 2 2 2 2 2 2 2 2 2 2 2 2 2 2 2 2 2 2 2 2 2 2 2 2 2 2
left_child=1 2 5 4 14 6 13 -8 9 23 11 12 21 -1 15 -2 28 18 -6 20 25 22 -11 -3 27 -7 -12 -25 -16 -30
right_child=3 8 -4 -5 17 19 7 -9 -10 10 26 -13 -14 -15 16 -17 -18 -19 -20 -21 -22 -23 -24 24 -26 -27 -28 -29 29 -31
leaf_value=0.067346504685679681 0.046118560885678575 0.029293749709843522 -0.019276745521929345 -0.012222486882751314 0.050927133435603761 0.00550110846478492 0.054671689108466842 0.0089744744723729945 -0.026704827722897107 0.050303590045694048 -0.023616833389630436 -0.023928192675420592 -0.013209096618211701 0.026639351729532232 0.049311814213832544 0.017192106940446334 0.066859727033453303 -0.018329898485171726 -0.002835616414067885 -0.019513018351894725 -0.0089135770637713153 0.0031422338055634605 0.0093581620305511464 0.026193589758174325 -0.016011862777026289 0.052593250511886763 -0.043739270314781503 0.0012711544210712116 0.049760938124158063 -0.017256686781215801
leaf_count=263 303 238 636 510 93 100 225 970 1129 136 333 1100 1339 277 279 649 284 232 161 258 234 1324 281 271 272 108 692 264 156 91
internal_value=0 -0.106527 0.214573 0.419607 0.57026 0.371315 0.531384 0.351571 -0.240162 -0.187066 -0.263242 -0.145343 -0.0263359 0.929305 0.727243 0.527975 0.961445 0.0011174 0.336983 -0.0254273 0.18753 0.156591 0.454241 0.192359 0.0763029 0.599056 -0.744039 0.277908 0.758568 0.501405
internal_count=13208 10450 3071 2758 2248 2435 1735 1195 7379 6250 5205 4180 3080 540 1762 952 810 486 254 700 442 1741 417 1045 807 208 1025 535 526 247
shrinkage=0.05


Tree=13
num_leaves=31
num_cat=0
split_feature=2 5 6 6 7 7 6 5 7 6 7 1 7 7 6 6 7 7 6 2 7 6 7 6 6 2 6 7 7 6
split_gain=546.826 401.349 268.99 241.709 167.867 143.353 110.29 156.859 83.33 134.201 143.194 82.8589 70.4677 68.7964 70.6617 68.1795 121.796 79.1844 77.7718 60.8314 57.39 162.096 82.5707 54.2802 50.5309 47.5431 46.2093 50.079 43.498 45.1175
threshold=6.3645014518779908 2.4538992737230627 37.925000000000004 37.985000000000007 -117.175 -117.75499999999998 38.465000000000011 2.9076883227176222 -122.40499999999999 34.175000000000004 -118.37499999999999 29.500000000000004 -122.35499999999998 -121.86499999999999 35.335000000000008 34.515000000000008 -121.45499999999998 -117.62499999999999 37.605000000000011 7.5700368955919481 -121.36499999999999 34.665000000000006 -117.77499999999999 33.625000000000007 37.605000000000011 5.4786779414439 33.545000000000009 -117.23499999999999 -118.36499999999999 34.165000000000006
decision_type=2 2 2 2 2 2 2 2 2 2 2 2 2 2 2 2 2 2 2 2 2 2 2 2 2 2 2 2 2 2
left_child=1 2 5 4 11 8 7 12 -1 10 -10 19 -3 24 -15 17 18 28 -17 -2 -9 22 25 -12 -11 -22 27 -7 29 -14
right_child=3 6 -4 -5 -6 26 -8 20 9 13 23 -13 15 14 -16 16 -18 -19 -20 -21 21 -23 -24 -25 -26 -27 -28 -29 -30 -31
leaf_value=0.054612870195215969 0.019566970657052807 0.030907447437715271 -0.018146604291485853 -0.011209477890621532 -0.0096416296698713377 0.035187818415393618 -0.029897929649336435 -0.0018009080100966379 0.062313908177963229 0.033010685850915281 0.083308781345840549 0.050658385587398359 0.057848011067350547 0.012602627282820598 -0.032280304392980824 0.02567945247690186 -0.030117406986227887 -0.016092385730026502 -0.012885345761651644 0.044637712569045571 -0.010245263800256513 -0.037629513698630039 -0.025523544623272016 0.016357063912950897 0.0026438172512103742 0.0087684055418107403 -0.028556887132905519 -0.0079675617643707973 0.00697699133931114 0.014064446100919191
leaf_count=199 794 184 651 451 241 94 687 743 301 276 32 562 96 171 180 246 457 309 279 348 1785 760 799 561 272 403 158 236 781 152
internal_value=0 -0.0926147 0.209155 0.435401 0.588344 0.359328 -0.215625 -0.178069 0.478326 0.410188 0.684534 0.698828 0.0224691 0.137367 -0.208285 -0.0247744 -0.224878 0.122088 0.1037 0.544135 -0.289906 -0.34025 -0.235336 0.399399 0.358762 -0.134864 -0.126421 0.0865037 0.255398 0.620258
internal_count=13208 10812 3131 2396 1945 2480 7681 6994 1992 1793 894 1704 2504 899 351 2320 982 1338 525 1142 4490 3747 2987 593 548 2188 488 330 1029 248
shrinkage=0.05


Tree=14
num_leaves=31
num_cat=0
split_feature=0 0 5 0 5 1 1 6 7 6 7 5 5 6 0 7 1 1 5 6 5 6 7 7 6 7 5 7 6 7
split_gain=1479.66 524.965 205.269 143.554 125.065 92.4815 89.2414 87.2819 90.8679 90.8852 88.8031 60.3651 55.3465 54.5893 51.0834 50.1901 40.212 38.1269 36.4284 30.167 27.4777 27.3482 25.664 24.5926 29.0875 29.1465 23.1433 21.5396 22.7321 21.4146
threshold=5.5878500000000004 3.5482500000000003 2.3416065588459305 7.6523000000000012 2.1548503344297041 26.500000000000004 19.500000000000004 34.455000000000005 -121.65499999999999 38.675000000000004 -117.77499999999999 2.8619042662688368 3.4417504218325878 37.865000000000002 2.5667500000000003 -122.38499999999998 20.500000000000004 24.500000000000004 2.0470840156190957 38.545000000000009 2.4479787762634868 37.685000000000009 -119.87499999999999 -122.35499999999998 37.605000000000011 -118.22499999999998 2.5172498346925285 -122.35499999999998 37.645000000000003 -117.77499999999999
decision_type=2 2 2 2 2 2 2 2 2 2 2 2 2 2 2 2 2 2 2 2 2 2 2 2 2 2 2 2 2 2
left_child=1 4 6 5 14 26 -3 10 9 15 12 16 -6 18 -1 -9 -4 -16 -8 23 -7 -17 -10 -18 25 -25 -2 -19 -29 -5
right_child=3 2 11 29 7 20 13 8 22 -11 -12 -13 -14 -15 17 21 19 27 -20 -21 -22 -23 -24 24 -26 -27 -28 28 -30 -31
leaf_value=-0.010849735869019037 0.041090325337763023 0.0038023352757960132 -0.0040337409904030591 0.066275911673310997 0.0022479793196495397 0.065659728566815539 0.059111377774249942 0.017401651584734331 -0.027286077827065765 -0.034985787001717575 -0.025304171003985437 -0.0047090605185694991 -0.014917537280129331 0.0032112535509440931 -0.005892686986654524 0.0027510845681577006 0.036126238323003053 0.057002230603247883 0.032714254268921952 -0.02005610082196654 0.04083592551036079 -0.019428043618390803 -0.039854077619944764 0.025165244421077662 -0.0076689397295267555 0.0059818791940539308 0.018213359365692128 0.026326773068932299 -0.0068225933895778986 0.039088505503808171
leaf_count=486 130 276 475 459 957 155 231 195 1072 357 896 2081 922 96 186 213 125 40 301 64 397 400 654 430 150 367 739 198 70 86
internal_value=0 -0.136958 0.122899 0.803385 -0.31666 0.636038 0.549988 -0.373711 -0.49531 -0.279517 -0.247028 0.0183243 -0.123498 0.75828 0.0131877 -0.0938593 0.163653 0.239642 0.883523 0.265814 0.956128 -0.234429 -0.640965 0.305631 0.250603 0.326635 0.432714 0.455533 0.353367 1.23972
internal_count=13208 11242 4596 1966 6646 1421 904 5666 2891 1165 2775 3692 1879 628 980 808 1611 494 532 1136 552 613 1726 1072 947 797 869 308 268 545
shrinkage=0.05


Tree=15
num_leaves=31
num_cat=0
split_feature=2 5 6 6 7 1 7 6 7 7 6 5 5 2 7 6 7 7 6 1 6 6 7 6 7 7 6 7 7 6
split_gain=481.35 329.461 265.304 201.587 172.155 140.111 90.7413 84.2824 91.3606 80.2372 74.881 95.1733 74.4105 63.5208 54.5067 59.6523 127.924 51.7581 63.9035 49.7608 45.5597 44.3777 47.9414 40.9879 38.8965 38.6102 92.2924 45.3462 32.559 45.9896
threshold=6.2831396941173088 2.5635031560564072 37.935000000000009 37.985000000000007 -117.62499999999999 27.500000000000004 -122.31499999999998 34.595000000000006 -118.33499999999999 -120.58499999999999 38.465000000000011 3.1318949779861835 3.0147970047457706 7.9057900432900441 -117.55499999999999 34.515000000000008 -121.45499999999998 -118.24499999999999 34.155000000000008 19.500000000000004 37.605000000000011 37.625000000000007 -122.38499999999998 33.625000000000007 -117.175 -121.36499999999999 34.455000000000005 -117.79499999999999 -117.145 33.765000000000008
decision_type=2 2 2 2 2 2 2 2 2 2 2 2 2 2 2 2 2 2 2 2 2 2 2 2 2 2 2 2 2 2
left_child=1 2 5 4 12 17 -7 8 -8 20 11 14 19 -14 15 -3 21 18 -1 -2 -9 -17 -23 24 -6 -13 27 -27 29 -10
right_child=3 10 -4 -5 23 6 7 9 28 -11 -12 25 13 -15 -16 16 -18 -19 -20 -21 -22 22 -24 -25 -26 26 -28 -29 -30 -31
leaf_value=0.038749293595810169 0.023874730034286997 0.0075233054360347692 -0.017977635871904683 -0.0099470282550666381 0.040398480486782157 0.052598240468005986 0.045738531918013366 0.0299900144951353 0.042894716305703816 -0.042091027319076518 -0.028652913107261414 -0.0024240183180297826 0.012540887806918545 0.049888518191427506 -0.019721805661594882 0.021571122986226723 -0.026605309660888532 -0.0091366508023299191 0.0026235469967289655 0.049375287014879393 -0.0028027553905873009 0.01711752100143878 -0.015595187117419716 -0.016689720536480112 -0.0019369493773119758 -0.0091783379785029574 -0.035677241378665701 -0.025623453569825035 -0.015797200915101287 0.0088038283665356678
leaf_count=159 262 1228 828 476 85 231 404 186 143 84 569 482 517 146 425 271 534 600 532 709 246 176 308 219 150 1713 572 555 77 321
internal_value=0 -0.0943319 0.141247 0.388324 0.522202 0.280255 0.469565 0.377481 0.554962 0.0524426 -0.225722 -0.194171 0.673557 0.415305 -0.06319 -0.00725845 -0.157519 0.0321437 0.218723 0.849892 0.226327 0.107421 -0.0739931 -0.0225427 0.267517 -0.31017 -0.354584 -0.264052 0.286269 0.386206
internal_count=13208 10644 3811 2564 2088 2983 1692 1461 945 516 6833 6264 1634 663 2942 2517 1289 1291 691 971 432 755 484 454 235 3322 2840 2268 541 464
shrinkage=0.05


Tree=16
num_leaves=31
num_cat=0
split_feature=0 0 0 5 5 1 2 0 1 0 5 7 1 5 2 0 5 5 0 7 3 7 7 1 4 0 3 3 1 7
split_gain=1313.47 306.427 259.724 177.335 112.231 68.8362 65.7757 59.794 54.098 42.0157 40.225 33.1117 32.8511 44.7889 32.2997 30.4033 25.8466 22.9301 21.8079 21.4157 20.8688 18.0254 19.1327 16.5361 15.2659 14.6317 14.1103 14.0005 13.3395 12.7117
threshold=4.5940500000000002 6.3792000000000009 2.6633000000000004 2.3350041666248336 2.7369611621141718 24.500000000000004 3.6394395730080062 8.3976000000000024 26.500000000000004 3.6265000000000005 1.8188163744845542 -122.40499999999999 16.500000000000004 2.1657060614300971 5.0756653006908978 1.9403500000000002 2.0742213857962217 2.7145626134301275 5.7116000000000016 -122.29499999999999 1.0230621491184875 -118.27499999999999 -118.51499999999999 16.500000000000004 497.50000000000006 3.9421500000000003 1.0181992504140156 1.0449298826574449 31.500000000000004 -117.62499999999999
decision_type=2 2 2 2 2 2 2 2 2 2 2 2 2 2 2 2 2 2 2 2 2 2 2 2 2 2 2 2 2 2
left_child=2 4 6 5 12 -4 21 8 27 14 28 -11 -2 26 -5 -8 -17 -13 23 -15 -12 22 -1 -6 -22 -26 -14 -3 -7 -25
right_child=1 7 3 9 18 10 15 -9 -10 11 20 17 13 19 -16 16 -18 -19 -20 -21 24 -23 -24 29 25 -27 -28 -29 -30 -31
leaf_value=-0.010088717669925907 0.010169292285078855 0.022895079397020238 -0.0020987661310958089 -0.0070441090277323232 -0.0059934747586894224 0.024752384721964171 -0.030322651337056111 0.064702562682858081 0.055712119993986564 0.016933314562247125 0.002904100230742836 0.0036542698308486459 0.034548779241740706 0.049886718788943463 -0.018611859409147363 -0.0032193992658235771 -0.021783092301154335 -0.0083173011662015309 0.017402514307566199 0.023953332547868592 -0.0080421151808248124 -0.015435382646153212 0.011421922655859723 0.0094491078614315736 0.019855519044552135 0.041666516787087438 0.068160488552359108 0.040936589345158841 0.056196105975444277 -0.012609545970917679
leaf_count=220 198 316 489 1303 328 52 1050 339 315 194 202 570 45 92 1124 211 1684 1341 373 591 39 346 195 703 357 98 102 163 96 72
internal_value=0 0.510958 -0.195 -0.0640523 0.315708 0.25657 -0.402233 0.942471 0.792363 -0.158357 0.429542 -0.0549692 0.569389 0.6567 -0.248028 -0.469955 -0.394322 -0.0949301 0.139026 0.548931 0.328871 -0.140155 0.000373833 0.0683404 0.439599 0.491065 1.15742 0.580689 0.902966 0.147996
internal_count=13208 3637 9571 5865 2504 1333 3706 1133 794 4532 844 2105 1028 830 2427 2945 1895 1911 1476 683 696 761 415 1103 494 455 147 479 148 775
shrinkage=0.05


Tree=17
num_leaves=31
num_cat=0
split_feature=0 0 0 5 5 1 5 2 0 1 1 5 0 2 0 7 1 7 7 7 7 7 7 5 7 7 0 0 1 7
split_gain=1185.41 277.113 234.868 160.098 98.4969 61.9434 61.8039 59.6159 57.2286 41.5718 30.0253 40.5644 28.628 26.6679 25.1621 23.6168 20.7582 20.8139 21.2519 21.1021 20.4106 20.2414 18.5376 18.4579 18.1681 24.4567 18.0772 17.6499 14.9238 14.0755
threshold=4.5940500000000002 6.3222500000000013 2.7033500000000004 2.5230264265275211 2.7369611621141718 24.500000000000004 2.0470840156190957 3.823211212195722 7.9889500000000009 26.500000000000004 16.500000000000004 2.1657060614300971 3.6265000000000005 5.0311730001735215 1.9403500000000002 -122.40499999999999 51.500000000000007 -118.69499999999998 -118.36499999999999 -121.86499999999999 -122.24499999999999 -122.425 -122.40499999999999 2.2482254092423588 -118.27499999999999 -118.51499999999999 5.7116000000000016 3.6829500000000004 16.500000000000004 -118.43499999999999
decision_type=2 2 2 2 2 2 2 2 2 2 2 2 2 2 2 2 2 2 2 2 2 2 2 2 2 2 2 2 2 2
left_child=2 4 7 5 10 -4 22 24 9 -3 -2 -12 13 -5 -9 -14 17 19 -19 -8 -13 -18 -7 -16 25 -1 28 -24 -6 -27
right_child=1 8 3 12 26 6 16 14 -10 -11 11 20 15 -15 23 -17 21 18 -20 -21 -22 -23 27 -25 -26 29 -28 -29 -30 -31
leaf_value=-0.011737013334741246 0.0088476039320965743 0.026189261086697418 -0.0028592974105742597 -0.0075134253838548548 -0.0056938009697904178 0.059354320155423995 0.0057976932533991884 -0.029107270605350639 0.058448833875282082 0.050516624700523809 0.054797697179529772 0.044388676683932621 0.01407349505255447 -0.01925297442768989 -0.0085875886202426126 -0.0061704474892129556 0.059431798383593561 0.035007544793705977 0.0067752989547160474 -0.018121073788928133 0.021625406650064228 0.015518614462698282 0.020173045583977936 -0.021504286338020682 -0.015324667387874797 0.039672336152152106 0.016288260619831688 0.047050982051202499 0.0070297983485976268 0.0049116300737824794
leaf_count=291 190 450 738 1007 328 57 263 965 441 288 146 120 158 931 338 1634 34 90 257 142 549 115 205 1522 500 34 350 87 775 203
internal_value=0 0.48541 -0.18525 -0.0566584 0.294239 0.172543 0.308175 -0.376084 0.883968 0.713657 0.534935 0.618391 -0.178817 -0.26306 -0.45112 -0.0877109 0.169786 0.102222 0.281956 -0.0517728 0.51417 0.510781 0.66545 -0.383141 -0.169881 -0.0405133 0.127755 0.563624 0.0649234 0.197968
internal_count=13208 3637 9571 5718 2458 1988 1250 3853 1179 738 1005 815 3730 1938 2825 1792 901 752 347 405 669 149 349 1860 1028 528 1453 292 1103 237
shrinkage=0.05


Tree=18
num_leaves=31
num_cat=0
split_feature=0 0 0 1 1 6 7 0 6 7 7 6 1 7 6 7 7 6 6 7 7 6 6 7 7 6 7 6 6 7
split_gain=1069.83 250.095 213.085 90.8154 61.697 53.322 95.3944 52.1714 50.697 50.467 48.0926 61.7554 45.4128 44.7593 49.2261 115.673 55.4011 35.8992 35.5973 29.0622 28.757 36.059 29.0522 28.2148 23.6152 27.915 23.5739 23.2715 22.9259 37.1406
threshold=4.5940500000000002 6.3222500000000013 2.8316500000000002 47.500000000000007 36.500000000000007 34.455000000000005 -118.30499999999999 8.3976000000000024 38.465000000000011 -122.40499999999999 -121.65499999999999 38.675000000000004 26.500000000000004 -117.79499999999999 34.515000000000008 -120.48499999999999 -118.30499999999999 33.655000000000008 34.175000000000004 -117.24499999999999 -122.01499999999999 37.815000000000005 37.565000000000005 -116.50499999999998 -122.38499999999998 37.685000000000009 -117.81499999999998 37.765000000000008 37.605000000000011 -122.425
decision_type=2 2 2 2 2 2 2 2 2 2 2 2 2 2 2 2 2 2 2 2 2 2 2 2 2 2 2 2 2 2
left_child=2 4 5 8 20 6 -1 12 13 27 11 24 -3 14 16 28 18 19 -4 -15 22 26 -2 -8 -7 -26 -22 -5 -16 -30
right_child=1 7 3 9 -6 10 23 -9 -10 -11 -12 -13 -14 17 15 -17 -18 -19 -20 -21 21 -23 -24 -25 25 -27 -28 -29 29 -31
leaf_value=0.012405723728507526 0.047595942403460226 0.025861379428867438 0.026830336244191785 0.022415184243645192 0.031203874540839529 0.0154162296273243 -0.014521649771456724 0.058544992633297169 -0.019201749880460445 0.0069753139461544433 -0.028447991917606927 -0.031560072253351328 0.049616125310439352 0.018694119919663327 0.009720359041239135 -0.030429843149214278 -0.0010726689404488403 -0.023628446794395699 0.0040899266809748197 -0.010098778741083435 0.013898432807590802 -0.013356275015345965 0.014478594625733147 -0.040401352884297352 0.010712520138582392 -0.01701770958918258 -0.00033881934970403523 0.060200763889300971 0.01397649099630964 -0.010978581219582083
leaf_count=351 93 506 390 82 429 126 1549 339 505 318 1346 305 334 114 478 379 1146 398 308 379 1134 181 230 113 127 318 391 81 204 554
internal_value=0 0.461139 -0.175987 -0.0430589 0.279527 -0.343473 -0.225584 0.839769 -0.0841218 0.371412 -0.450275 -0.267911 0.706134 -0.0493043 0.00217832 -0.125294 0.11382 -0.249168 0.335918 -0.0688157 0.206677 0.154875 0.480279 -0.325624 -0.0738598 -0.182074 0.204962 0.823841 0.0229029 -0.0852488
internal_count=13208 3637 9571 5336 2458 4235 2013 1179 4855 481 2222 876 840 4350 3459 1615 1844 891 698 493 2029 1706 323 1662 571 445 1525 163 1236 758
shrinkage=0.05


Tree=19
num_leaves=31
num_cat=0
split_feature=0 0 5 0 5 1 5 0 5 2 1 2 1 7 1 0 7 0 0 3 4 0 5 4 7 0 7 3 0 2
split_gain=970.684 325.089 141.726 91.0224 86.9767 62.4728 61.7966 50.3247 49.7921 41.8853 38.9933 34.0763 32.7042 31.648 21.8554 19.7447 18.1731 18.0479 17.9127 17.557 16.8208 15.3844 15.2961 15.0223 13.9898 15.3348 13.789 13.5696 13.4071 12.5689
threshold=5.5878500000000004 3.4727000000000001 2.5769981659061205 7.8283000000000014 2.0869941110136581 20.500000000000004 2.8404733413109962 2.5127000000000006 2.0470840156190957 3.0335866403977865 51.500000000000007 4.9276783158552142 27.500000000000004 -121.895 21.500000000000004 1.7226000000000001 -122.31499999999998 1.8208500000000003 4.5940500000000002 1.0402570112711393 508.50000000000006 4.4824500000000009 2.5829130445801765 1454.5000000000002 -117.93499999999999 9.8267500000000023 -119.73499999999999 1.0671445700582394 7.0566500000000003 4.1742857142857153
decision_type=2 2 2 2 2 2 2 2 2 2 2 2 2 2 2 2 2 2 2 2 2 2 2 2 2 2 2 2 2 2
left_child=1 4 5 6 12 -3 14 9 -7 23 11 -9 -1 -4 27 -14 -17 -11 -15 -16 -10 -22 -12 -6 -5 -26 -18 -2 -8 -19
right_child=3 2 13 24 7 8 28 10 20 17 22 -13 15 18 19 16 26 29 -20 -21 21 -23 -24 -25 25 -27 -28 -29 -30 -31
leaf_value=-0.0076594427184666332 0.011817165061894975 0.001461356728739338 0.0081387908011711727 0.056516517014728845 -0.015241218344599475 0.04295434425472941 0.013402539091792225 -0.006534447430245326 -0.0019636579873939367 -0.027605672369933349 0.030847340317966085 -0.01775878589922637 -0.012779930002535834 -0.0074891190852177953 0.03631593125629036 0.049217745535171192 -0.00048510644537134052 -0.012575880486049948 0.0010876938759811989 0.056482628702510598 0.014187407548786574 0.028548284207252486 -0.0017476161679541562 0.012505724219861443 0.023602327026235752 0.060255182650354178 0.021445992642359156 0.037762730007068639 0.030719376119944766 -0.021817787163190515
leaf_count=418 110 500 632 364 80 239 607 1408 101 880 73 1301 66 1652 312 39 117 551 964 165 485 303 71 125 78 45 185 93 137 1107
internal_value=0 -0.112017 0.0826484 0.658612 -0.259843 0.323458 0.530982 -0.30453 0.453879 -0.401244 -0.211545 -0.238499 0.0432757 -0.0380528 0.748883 0.24505 0.34195 -0.436364 -0.086571 0.865837 0.344942 0.394188 0.295524 0.033553 1.03181 0.740238 0.25899 0.474071 0.331825 -0.374929
internal_count=13208 11297 4876 1911 6421 1628 1424 5596 1128 2743 2853 2709 825 3248 680 407 341 2538 2616 477 889 788 144 205 487 123 302 203 744 1658
shrinkage=0.05


Tree=20
num_leaves=31
num_cat=0
split_feature=0 0 5 0 5 1 5 0 2 6 5 1 1 2 0 6 0 3 6 2 6 5 5 1 6 0 1 5 4 0
split_gain=877.735 319.513 141.082 107.275 87.4921 63.4435 70.2021 56.9632 52.3232 33.1143 30.2162 27.7732 27.3668 25.3369 22.2811 22.2467 19.401 18.7964 18.3474 17.0762 15.6049 19.3821 14.8345 13.7986 13.68 13.6583 13.5463 11.8044 11.555 12.0845
threshold=3.9014000000000002 6.1575500000000014 2.6845455203357944 2.7033500000000004 2.1182559652185824 20.500000000000004 2.0470840156190957 7.8283000000000014 3.823211212195722 37.905000000000008 2.5947212249490947 51.500000000000007 24.500000000000004 5.1801993133910615 5.3249500000000003 37.605000000000011 1.9205500000000002 0.97710595634877973 37.82500000000001 2.7723285486443388 37.905000000000008 3.4287187039764362 2.3067841409691634 33.500000000000007 34.455000000000005 1.6553000000000002 10.500000000000002 2.8404733413109962 172.00000000000003 9.1461500000000022
decision_type=2 2 2 2 2 2 2 2 2 2 2 2 2 2 2 2 2 2 2 2 2 2 2 2 2 2 2 2 2 2
left_child=3 2 5 8 12 -2 -7 10 19 22 15 13 -5 20 26 -3 -10 -14 -19 -1 21 -6 -8 -12 -18 -21 -4 -27 -9 -30
right_child=1 7 14 4 11 6 9 28 16 -11 23 -13 17 -15 -16 -17 24 18 -20 25 -22 -23 -24 -25 -26 27 -28 -29 29 -31
leaf_value=0.0064615903153868491 0.0044753220424533155 0.053973096614115035 -0.013154888600038892 -0.00057580961746689265 2.8835260711245281e-05 0.05597569192540558 0.037069628592819363 0.013479863736955894 -0.026274272310161169 -0.00089039590233808456 0.019709957796702371 0.011726805195691721 -0.018832589790225032 -0.014047284221836693 0.0092080592133433076 0.019748752983634488 -0.012156999165749116 0.031302602827175015 -0.0039650688402701256 -0.021649682979917317 -0.018991630756939701 -0.011838291928693501 0.021300000214484874 0.041095451760867784 -0.020871453408291073 0.0024822425455115248 -0.00010925931235280106 -0.011792555607637855 0.043741507984697822 0.059586581033815089
leaf_count=190 468 163 226 202 1139 170 195 21 919 145 528 170 25 1406 627 67 747 259 43 197 182 493 634 88 1134 229 1665 394 250 232
internal_value=0 0.306695 0.16868 -0.216529 -0.100368 0.399677 0.526565 0.72923 -0.336014 0.423073 0.570781 -0.159391 0.277873 -0.180189 0.0207985 0.880068 -0.406397 0.45664 0.525621 -0.140893 -0.102094 -0.0711205 0.500188 0.455301 -0.348214 -0.203483 -0.0333678 -0.13091 0.995727 1.02736
internal_count=13208 5479 4130 7729 3919 1612 1144 1349 3810 974 846 3390 529 3220 2518 230 2800 327 302 1010 1814 1632 829 616 1881 820 1891 623 503 482
shrinkage=0.05


Tree=21
num_leaves=31
num_cat=0
split_feature=0 0 5 0 5 2 1 5 0 0 6 7 7 6 7 5 1 6 7 6 5 6 7 6 7 0 5 5 4 6
split_gain=792.659 264.354 124.072 118.91 95.6193 47.2217 47.2022 42.4706 32.8557 29.8122 26.6883 55.4234 27.2581 43.108 54.8935 32.9193 26.3833 25.2304 22.1386 20.338 18.6717 18.3899 18.3113 32.5327 21.6542 17.5094 16.4225 15.9405 15.8852 14.95
threshold=4.0778000000000008 6.5313500000000007 2.5947212249490947 2.7033500000000004 2.1430194805194809 3.823211212195722 21.500000000000004 2.0470840156190957 7.8283000000000014 5.3249500000000003 37.935000000000009 -122.22499999999998 -117.55499999999999 34.515000000000008 -120.29499999999999 3.3693625661388897 24.500000000000004 37.885000000000012 -122.33499999999999 33.625000000000007 2.6343099087209949 38.035000000000004 -121.45499999999998 34.665000000000006 -117.75499999999998 1.9205500000000002 2.9925481703592651 3.5719050270114239 508.50000000000006 37.905000000000008
decision_type=2 2 2 2 2 2 2 2 2 2 2 2 2 2 2 2 2 2 2 2 2 2 2 2 2 2 2 2 2 2
left_child=3 2 6 5 16 27 28 -8 20 22 11 -6 13 15 -15 -13 -5 -9 -19 -14 -3 -18 29 24 -24 -7 -11 -1 -2 -4
right_child=1 8 9 4 10 25 7 17 -10 26 -12 12 19 14 -16 -17 21 18 -20 -21 -22 -23 23 -25 -26 -27 -28 -29 -30 -31
leaf_value=-0.0017105138275186503 -0.017199586268584682 0.043540369892574107 0.014753034929841757 0.0013503520470875942 0.019670389839014864 -0.024960558659597721 0.054012956142693448 0.028822705888837865 0.04729704592491743 0.018336340947129395 -0.015282460133204903 0.0065809624490651107 -0.0072984613831647664 -0.0037363491634075704 -0.030465331531750663 -0.0090290039760572965 0.025043539867865068 0.036914853600634116 -0.0089551318806575641 -0.026729039605990226 0.023489572979715163 -0.023087829244988308 0.0055914148284640242 -0.019055833730974473 -0.010093499965492697 -0.016540154857953498 0.0049095777921611744 -0.014612421126892934 0.012347268472270419 -0.0042247598921699879
leaf_count=620 53 167 314 244 215 919 146 582 503 424 759 928 276 534 300 531 361 37 91 263 381 21 730 255 315 1881 492 390 321 155
internal_value=0 0.316091 0.196548 -0.189666 -0.0782991 -0.319213 0.45957 0.589057 0.761393 0.0760579 -0.137869 -0.0960752 -0.133236 -0.0856701 -0.267022 0.017995 0.283877 0.488049 0.0860832 -0.335589 0.591999 0.447951 0.000233555 -0.0608763 0.0172685 -0.386077 0.222492 -0.133849 0.163203 0.169621
internal_count=13208 4966 3915 8242 4432 3810 1230 856 1051 2685 3806 3047 2832 2293 834 1459 626 710 128 539 548 382 1769 1300 1045 2800 916 1010 374 469
shrinkage=0.05


Tree=22
num_leaves=31
num_cat=0
split_feature=0 0 5 5 6 7 7 6 1 6 5 0 7 6 7 5 7 5 5 7 6 7 6 6 6 6 7 0 7 7
split_gain=717.838 261.913 116.998 86.7812 56.6182 68.5893 64.2084 53.6942 48.7419 47.7212 46.0841 45.7115 44.2998 42.6424 38.9662 36.0418 27.8076 26.6312 25.026 23.134 28.0883 21.2111 21.875 19.8889 19.3685 20.0911 20.7934 18.155 17.168 15.9739
threshold=3.9014000000000002 6.1575500000000014 2.4479787762634868 2.2662726980707828 34.455000000000005 -117.66499999999998 -120.40499999999999 37.905000000000008 21.500000000000004 37.955000000000005 3.4417504218325878 7.8283000000000014 -117.145 37.885000000000012 -122.31499999999998 2.973738656133917 -122.40499999999999 2.1657060614300971 2.5947212249490947 -122.22499999999998 37.625000000000007 -118.20499999999998 34.175000000000004 37.605000000000011 33.675000000000004 34.025000000000013 -118.395 3.2918500000000006 -118.37499999999999 -116.60499999999998
decision_type=2 2 2 2 2 2 2 2 2 2 2 2 2 2 2 2 2 2 2 2 2 2 2 2 2 2 2 2 2 2
left_child=3 2 8 9 5 10 7 14 -2 12 24 18 16 17 -6 19 -1 -10 23 -4 21 22 28 -3 -5 26 -26 -18 -21 -7
right_child=1 11 15 4 6 29 -8 -9 13 -11 -12 -13 -14 -15 -16 -17 27 -19 -20 20 -22 -23 -24 -25 25 -27 -28 -29 -30 -31
leaf_value=0.036555374254073417 0.0064635514243661114 0.049398926884632995 0.023225013961447466 0.042414548801025381 0.019850542312407675 -0.016278453888144861 -0.028755562445181088 -0.019754056984263791 0.05051705418088074 -0.016903640548418274 -0.010426523156357118 0.044932193063369867 -0.020514732101562849 0.0020620786267219584 -0.0081809888891017958 -0.0023145172490073164 0.0023918065818807135 0.027672071415581742 0.020643881205506226 0.053650783718531506 -0.0088349943784179295 0.0025018588027322986 0.010035638470944833 0.017038946051442468 0.046023744083940984 0.0094019941676766507 -0.0059333105561117606 0.0176654073036599 0.019457212632056325 -0.03469689082408297
leaf_count=84 300 163 224 32 145 801 866 1217 210 299 1049 503 145 107 855 1581 710 325 616 58 262 563 400 67 20 582 518 268 100 138
internal_value=0 0.277355 0.152399 -0.195817 -0.247944 -0.153429 -0.344206 -0.254011 0.462032 0.0195795 -0.0568939 0.659913 0.108178 0.617528 -0.0823283 0.0609075 0.178967 0.732785 0.517973 0.166371 0.118084 0.186981 0.325151 0.799446 0.0811848 0.0592675 -0.0800364 0.131544 0.640186 -0.379706
internal_count=13208 5479 4130 7729 6223 3140 3083 2217 942 1506 2201 1349 1207 642 1000 3188 1062 535 846 1607 1383 1121 558 230 1152 1120 538 978 158 939
shrinkage=0.05


Tree=23
num_leaves=31
num_cat=0
split_feature=0 0 0 7 6 7 7 6 6 7 6 7 1 6 7 6 6 7 4 7 6 0 6 1 7 6 7 7 1 7
split_gain=652.187 193.076 117.985 58.796 54.8291 92.8418 69.052 57.3623 46.9771 54.3068 63.4727 59.3883 38.5601 37.6665 33.348 29.453 26.9643 45.7614 25.8131 22.7919 21.9737 21.6075 21.5608 20.2022 19.3428 17.2563 28.8624 22.9745 17.2404 17.0263
threshold=5.0706500000000014 3.3340500000000004 6.9406500000000007 -122.35499999999998 34.455000000000005 -118.35499999999998 -121.65499999999999 38.905000000000008 37.605000000000011 -118.25499999999998 34.175000000000004 -121.88499999999998 29.500000000000004 38.745000000000012 -116.50499999999998 33.995000000000012 35.335000000000008 -120.645 106.50000000000001 -122.38499999999998 37.585000000000008 9.1461500000000022 34.165000000000006 28.500000000000004 -118.395 33.795000000000009 -117.13499999999998 -117.75499999999998 48.500000000000007 -119.87499999999999
decision_type=2 2 2 2 2 2 2 2 2 2 2 2 2 2 2 2 2 2 2 2 2 2 2 2 2 2 2 2 2 2
left_child=1 4 12 13 5 22 7 19 9 10 15 -12 -2 -3 -7 -5 -13 -18 -4 28 -21 23 24 -20 -1 26 -11 -27 -6 -8
right_child=2 3 18 8 6 14 29 -9 -10 25 11 16 -14 -15 -16 -17 17 -19 21 20 -22 -23 -24 -25 -26 27 -28 -29 -30 -31
leaf_value=0.048987566483899569 0.0098342276374831453 0.023730106289287123 -0.018245070800185205 0.011755336686319647 0.0028067389137706616 -0.0086387904964767889 -0.018833591628754386 -0.02524419708990935 -0.010585530652836229 0.010824602827029461 0.022038304059028804 0.0044018562002824382 0.02442319208742199 -0.023939254580308562 -0.033243218515616881 0.037488529681412065 0.0030621964999419803 -0.034016435411101657 0.026194127138648462 0.0087807425318963146 -0.010888433991803833 0.051829977340295819 0.0072534569006716537 0.046183077234251822 0.01173793007915337 -0.0026228999946599492 -0.010827665564993138 -0.019307780748284941 0.031993867743473785 -0.028924582592381756
leaf_count=78 1270 418 20 205 144 2427 1117 328 806 439 293 380 704 46 146 243 170 163 335 198 502 238 218 203 63 792 237 279 78 668
internal_value=0 -0.114029 0.431799 0.0430913 -0.231757 -0.13423 -0.325974 -0.145725 0.00406827 0.0584006 0.201174 0.061746 0.300744 0.380085 -0.200698 0.514266 -0.0940084 -0.301748 0.756805 -0.0179548 -0.106497 0.785715 0.34216 0.674729 0.646882 -0.0604277 0.0646699 -0.139388 0.261234 -0.452199
internal_count=13208 10438 2770 4471 5967 2932 3035 1250 4007 3201 1454 1006 1974 464 2573 448 713 333 796 922 700 776 359 538 141 1747 676 1071 222 1785
shrinkage=0.05


Tree=24
num_leaves=31
num_cat=0
split_feature=0 0 5 0 5 1 5 5 0 1 0 2 7 3 2 2 7 2 4 5 7 7 1 7 5 0 7 7 3 7
split_gain=592.46 222.783 107.346 62.2252 52.669 48.9545 43.6597 42.9617 25.6115 27.633 25.3991 26.0162 23.2341 19.1467 18.4818 16.4508 15.0453 13.1023 15.3602 12.8907 12.816 12.5356 12.0053 11.81 11.6645 11.5949 12.3925 10.86 10.6398 10.5237
threshold=5.5878500000000004 3.5482500000000003 2.5439250720007971 7.8283000000000014 2.4538992737230627 20.500000000000004 2.0470840156190957 2.6548744295997047 2.2844500000000005 49.500000000000007 2.4589000000000003 2.8995853529504285 -121.88499999999998 1.0003353454057682 4.6459573929309519 4.8268056763135023 -122.33499999999999 3.4340886049088728 1279.5000000000002 2.973738656133917 -118.69499999999998 -117.90499999999999 16.500000000000004 -117.45499999999998 3.1014239383804605 4.6754000000000007 -122.33499999999999 -118.51499999999999 1.0281784667737972 -119.76499999999999
decision_type=2 2 2 2 2 2 2 2 2 2 2 2 2 2 2 2 2 2 2 2 2 2 2 2 2 2 2 2 2 2
left_child=1 4 5 7 8 -3 28 13 17 14 11 -6 -4 -2 -10 -12 -11 18 -1 -14 -13 24 -15 -22 -9 26 -8 -18 -7 -28
right_child=3 2 12 -5 10 6 25 21 9 16 15 20 19 22 -16 -17 27 -19 -20 -21 23 -23 -24 -25 -26 -27 29 -29 -30 -31
leaf_value=-0.0085250780601409028 0.016888950084356352 0.0013113505609671598 0.0075132384512573485 0.040614647066191022 0.0024147411371628711 0.021247603316442112 0.02917796355627832 0.023395955600955694 0.0039965276030026441 0.04186215250251385 -0.0054924493599987252 -0.022762532976813025 0.00090917452730963997 0.020088597583765192 -0.0087379976368624178 -0.013537929450673622 -0.00087344834948453363 -0.014953576566806685 0.029579000954369185 -0.006301313158626011 -0.010673630103287259 0.0051061712542076294 0.043751802517156768 -0.022164235965397516 0.010386324907408753 0.024658316722690907 -0.00062065974846821825 0.031589619984458153 0.046236135967447307 0.014788558275415739
leaf_count=87 138 438 625 503 157 56 84 396 590 52 1194 986 1075 67 551 1358 80 525 38 1464 639 273 268 344 305 245 192 38 178 262
internal_value=0 -0.087724 0.0809264 0.509312 -0.20506 0.305731 0.426108 0.40399 -0.0674924 0.0129775 -0.262728 -0.343459 -0.0224525 0.651251 -0.043062 -0.195474 0.389101 -0.229794 0.0611712 -0.0649686 -0.374696 0.283914 0.780383 -0.293895 0.354711 0.31284 0.230721 0.191615 0.805119 0.165438
internal_count=13208 11258 4619 1950 6639 1455 1017 1447 1961 1311 4678 2126 3164 473 1141 2552 170 650 125 2539 1969 974 335 983 701 783 538 118 234 454
shrinkage=0.05


Tree=25
num_leaves=31
num_cat=0
split_feature=0 0 0 5 5 1 2 6 1 5 1 6 6 6 3 6 4 0 6 6 5 3 6 4 5 1 0 6 6 4
split_gain=521.521 135.714 108.253 87.1481 70.7377 43.8554 40.4363 37.3164 31.1692 34.0309 27.4112 22.6177 25.9263 22.2881 20.9623 20.7012 20.3143 19.5836 19.461 21.3926 19.4239 19.3307 15.1408 15.6606 13.283 13.2434 12.2065 11.7129 11.7169 11.2258
threshold=4.5297000000000009 6.9406500000000007 2.5667500000000003 2.2662726980707828 2.9354259570278569 21.500000000000004 3.2408522980812142 37.815000000000005 16.500000000000004 2.0596232770534795 50.500000000000007 37.625000000000007 37.375000000000007 34.455000000000005 1.1840117847213578 35.335000000000008 106.50000000000001 9.1461500000000022 36.835000000000008 37.935000000000009 3.2767828589702597 1.0076118051783454 37.765000000000008 461.50000000000006 2.4479787762634868 20.500000000000004 3.4135500000000003 36.885000000000012 39.265000000000008 1433.5000000000002
decision_type=2 2 2 2 2 2 2 2 2 2 2 2 2 2 2 2 2 2 2 2 2 2 2 2 2 2 2 2 2 2
left_child=2 4 6 5 8 -4 29 14 -2 -10 13 12 24 20 22 -8 -3 21 -15 -20 -5 -18 23 -7 -11 -23 -25 -17 -29 -1
right_child=1 16 3 10 -6 7 15 -9 9 11 -12 -13 -14 18 -16 27 17 -19 19 -21 -22 25 -24 26 -26 -27 -28 28 -30 -31
leaf_value=-0.0068420050657123843 0.0040248559346271673 -0.013670358154922724 -0.0039332158893539233 0.00053593223774129901 0.0016993339359169116 -0.01720774292127427 -0.011215853809846806 -0.0059308228316561629 0.046376854163379624 0.029966624192425618 0.011235116792676756 0.0068656996572415115 0.044595612972908844 -0.018431951159800519 0.051584002212621272 -0.026778962379923027 0.017962838348313727 0.047347629255733117 -0.00085566189803281453 -0.012250286315779709 -0.0086395984189809923 0.025496874946254817 0.041214894607444021 0.010937589190651251 0.0153910413847564 0.045382954894254611 0.026816003098716276 -0.014101992312567313 -0.025929424933423473 0.010213614085529883
leaf_count=196 358 22 392 1516 1280 33 1385 150 117 209 236 327 113 512 54 418 209 229 729 947 931 142 68 258 620 204 228 858 277 190
internal_value=0 0.309696 -0.128229 -0.048618 0.212513 0.19484 -0.273225 0.330382 0.343542 0.411486 -0.107746 0.363906 0.442564 -0.124673 0.435452 -0.313203 0.674312 0.700906 -0.198007 -0.145881 -0.0591009 0.599384 0.380603 0.32247 0.381314 0.744432 0.367734 -0.392473 -0.33977 0.031065
internal_count=13208 3830 9378 6054 3024 1183 3324 791 1744 1386 4871 1269 942 4635 641 2938 806 784 2188 1676 2447 555 587 519 829 346 486 1553 1135 386
shrinkage=0.05


Tree=26
num_leaves=31
num_cat=0
split_feature=0 0 0 5 5 1 2 3 0 5 7 1 5 2 4 0 1 7 7 5 7 7 7 3 0 3 3 0 1 7
split_gain=473.786 125.068 89.5569 75.9509 55.8161 46.6914 35.8313 32.8307 24.9918 23.8643 21.9972 21.6592 24.388 20.7331 18.3336 17.6742 17.633 17.1436 17.4573 18.05 16.4898 15.2747 14.577 13.5018 12.7104 12.4421 11.7327 10.8498 10.1053 10.084
threshold=5.0253500000000004 2.7922500000000006 6.9406500000000007 2.4479787762634868 2.9354259570278569 21.500000000000004 3.2976861222033809 1.0223731557884685 1.9645000000000001 1.9000373345152604 -122.40499999999999 17.500000000000004 2.0596232770534795 4.4059362585771042 106.50000000000001 9.1461500000000022 28.500000000000004 -117.49499999999999 -118.87499999999999 3.3693625661388897 -122.62499999999999 -121.49499999999999 -122.38499999999998 1.0616826404518724 4.125700000000001 1.078159688892171 1.0076118051783454 3.6419500000000005 29.500000000000004 -122.24499999999999
decision_type=2 2 2 2 2 2 2 2 2 2 2 2 2 2 2 2 2 2 2 2 2 2 2 2 2 2 2 2 2 2
left_child=1 6 4 5 11 -3 -1 24 -8 25 20 -2 -13 22 -4 16 26 18 21 -20 -5 -12 -10 29 -7 28 -16 -11 -9 -14
right_child=2 3 14 10 -6 7 8 9 13 27 17 12 23 -15 15 -17 -18 -19 19 -21 -22 -23 -24 -25 -26 -27 -28 -29 -30 -31
leaf_value=0.0013358658146496495 0.0075945902533610084 -0.0037491498438055625 -0.012986840096048334 -0.0047995618011155141 0.0029025035742608614 -0.005026118092579899 -0.019278098828046087 0.00021573445376227887 0.024859388864133511 0.0082870250510955791 -0.0021131977222816492 0.051035322417339241 0.032323468479444277 -0.014155635295346814 0.010567289792291873 0.044980247782830024 0.04029818734487714 -0.012689725465424942 0.003420733575372141 -0.0071777173276777921 0.017645503405768138 -0.01166074292125285 -0.0059929776306621042 0.032684327959317097 0.01525623976957758 0.047885700885864017 0.029161235446949596 0.021198850462081819 0.033290042412570782 0.014731874293909736
leaf_count=461 289 562 22 141 887 254 1226 34 40 340 765 73 96 1506 141 229 201 627 1162 614 195 926 893 187 111 91 213 312 72 538
internal_value=0 -0.101105 0.357801 -0.0113947 0.247688 0.163325 -0.236039 0.273645 -0.26909 0.381471 -0.0814401 0.389876 0.466809 -0.210543 0.640596 0.665861 0.569415 -0.101627 -0.0741083 -0.00486741 0.164532 -0.14683 -0.0934052 0.417558 0.0228388 0.686479 0.435103 0.289314 0.453626 0.347912
internal_count=13208 10332 2876 6206 2070 1776 4126 1214 3665 849 4430 1183 894 2439 806 784 555 4094 3467 1776 336 1691 933 821 365 197 354 652 106 634
shrinkage=0.05


Tree=27
num_leaves=31
num_cat=0
split_feature=0 0 5 5 0 6 7 5 7 6 7 7 6 6 7 6 7 7 6 7 6 4 5 5 4 6 6 7 6 6
split_gain=431.752 153.186 67.421 50.6245 44.1914 36.5507 42.447 34.997 33.0876 29.0997 28.107 27.7387 27.1863 26.8141 34.9024 26.0653 31.0023 25.0756 24.2514 34.8812 23.2734 21.6367 20.8994 20.8741 16.9383 16.0886 16.0576 15.0024 16.3693 14.1844
threshold=5.5878500000000004 3.5482500000000003 2.2994678853709698 2.2367956109354661 7.3574500000000009 34.455000000000005 -117.68499999999999 2.7433840538188918 -119.87499999999999 37.975000000000001 -118.26499999999999 -122.29499999999999 37.585000000000008 34.045000000000009 -118.395 37.905000000000008 -122.31499999999998 -117.49499999999999 35.335000000000008 -121.88499999999998 33.885000000000012 446.50000000000006 1.5609086740748734 3.0004492362982931 172.00000000000003 33.905000000000008 38.745000000000012 -122.40499999999999 37.605000000000011 37.865000000000002
decision_type=2 2 2 2 2 2 2 2 2 2 2 2 2 2 2 2 2 2 2 2 2 2 2 2 2 2 2 2 2 2
left_child=1 3 21 9 7 6 13 -2 15 10 18 26 17 14 -5 16 -7 23 22 27 -16 -3 -1 -13 -6 -19 -4 -20 -29 -23
right_child=4 2 11 5 24 8 -8 -9 -10 -11 -12 12 -14 -15 20 -17 -18 25 19 -21 -22 29 -24 -25 -26 -27 -28 28 -30 -31
leaf_value=0.065797340941543755 0.026084236983900333 -0.0071999361862253863 0.016209145554117548 0.048792489369710285 -0.0044567746917406718 0.018968000657256009 -0.016063997368043609 0.0094589678064913637 -0.024679420999310843 -0.014753841250967526 -0.0061544423712184652 0.0077141201310138635 -0.010159629673186572 0.0050736185392221671 0.0031191474532730554 -0.01673732350149898 -0.0089378198264178227 -0.0035357878336650505 0.03204941438127528 -0.024312453254471334 -0.013404237700072631 0.021900318654738155 0.018249962636428581 -0.001830878553859187 0.034008865780608848 -0.023784541156526437 -0.023826356149382062 0.022809763650846793 -0.005701993100863314 0.0018680281787929896
leaf_count=26 538 88 346 27 30 114 822 769 657 256 400 1238 661 726 296 1162 784 352 68 89 761 622 208 1066 622 136 27 81 133 103
internal_value=0 -0.0765704 0.0627265 -0.174331 0.432129 -0.216822 -0.132835 0.326048 -0.298182 0.00591182 0.0825816 0.00715424 -0.0208308 -0.0472543 -0.146863 -0.235861 -0.107904 0.0223429 0.218562 0.0595567 -0.175541 0.324251 0.47066 0.065958 0.644779 -0.183578 0.266223 0.231815 0.101797 0.381087
internal_count=13208 11249 4639 6610 1959 5349 2632 1307 2717 1261 1005 3826 3453 1810 1084 2060 898 2792 605 371 1057 813 234 2304 652 488 373 282 214 725
shrinkage=0.05


Tree=28
num_leaves=31
num_cat=0
split_feature=0 0 0 5 5 2 1 1 7 6 7 6 1 6 7 6 7 7 6 7 5 6 7 6 0 6 7 7 7 5
split_gain=391.237 110.755 73.3163 60.4698 47.4893 31.5186 30.528 27.7894 26.3922 27.4353 29.4759 24.9249 24.4964 20.2517 19.1698 18.2611 46.5376 31.4561 29.6059 22.0407 19.505 17.2745 25.6812 17.0469 15.8314 15.1122 20.0061 18.9409 14.8477 14.4415
threshold=4.3648500000000015 6.3792000000000009 2.5667500000000003 2.1430194805194809 2.7433840538188918 3.0335866403977865 24.500000000000004 51.500000000000007 -122.29499999999999 37.565000000000005 -118.27499999999999 38.425000000000004 18.500000000000004 34.145000000000003 -122.43499999999999 34.455000000000005 -120.18499999999999 -117.49499999999999 37.925000000000004 -119.33499999999999 3.6984382596013616 35.335000000000008 -118.35499999999998 33.755000000000003 9.1461500000000022 37.605000000000011 -118.10499999999998 -122.40499999999999 -122.02499999999999 2.6001824817518253
decision_type=2 2 2 2 2 2 2 2 2 2 2 2 2 2 2 2 2 2 2 2 2 2 2 2 2 2 2 2 2 2
left_child=2 4 5 6 8 -1 -4 15 -2 10 13 -8 24 -10 -9 17 18 19 -17 -5 -21 22 -7 -12 -3 26 -14 -27 -15 -28
right_child=1 12 3 7 -6 21 11 14 9 -11 23 -13 25 28 -16 16 -18 -19 -20 20 -22 -23 -24 -25 -26 27 29 -29 -30 -31
leaf_value=0.0044561909361582105 0.033388191052053047 0.011919744807298134 -0.0015147441329723321 0.045769725257047901 0.0021861524035400484 0.0095457993976128825 0.02104648518613287 0.03985519648025123 0.037895952466173777 -0.0045003911343277046 0.016346492241113904 -0.023952428011266007 0.040360717761725742 0.034885872792766753 0.004847263738345267 0.0017545424049092231 -0.023237008622983533 -0.011963252945743814 -0.011290212662159162 0.00337640794660664 -0.0086811707943454854 -0.016890319372732623 -0.011679305064486483 -0.0038538840782413016 0.039123290410590553 0.043324342966079711 0.045410882754783548 0.0040758648608840006 0.010352545674395516 0.01155607104458521
leaf_count=273 167 354 339 27 1749 160 456 48 172 204 204 33 431 83 211 825 445 644 920 1292 453 1587 1304 214 63 45 42 97 240 126
internal_value=0 0.251385 -0.1184 -0.0494983 0.150937 -0.236407 0.200321 -0.0920162 0.296977 0.241542 0.315623 0.360195 0.514475 0.480737 0.226704 -0.109938 -0.176073 -0.0499901 -0.102458 0.0187983 0.00492549 -0.265535 -0.187192 0.120093 0.320593 0.623583 0.693115 0.330275 0.333136 0.400395
internal_count=13208 4191 9017 5693 3033 3324 828 4865 1284 1117 913 489 1158 495 259 4606 2190 2416 1745 1772 1745 3051 1464 418 417 741 599 142 323 168
shrinkage=0.05


Tree=29
num_leaves=31
num_cat=0
split_feature=0 0 5 5 5 1 0 7 0 1 5 2 5 2 0 0 4 3 5 7 1 5 3 3 4 3 7 5 5 0
split_gain=354.944 126.076 56.7907 42.5341 37.1977 35.2766 25.9595 23.7814 22.7434 21.5352 20.5079 20.4284 19.3729 16.7743 16.1158 15.368 14.856 13.6536 13.2759 11.7792 11.7297 11.5935 11.5474 11.2256 11.1783 10.5396 10.1723 9.92235 9.86851 9.55114
threshold=5.5878500000000004 3.5482500000000003 2.2994678853709698 2.2367956109354661 2.9076883227176222 18.500000000000004 6.9406500000000007 -122.29499999999999 2.2127500000000002 26.500000000000004 1.8188163744845542 4.5449584199584203 1.5609086740748734 3.0335866403977865 7.5196500000000013 1.5286000000000002 172.00000000000003 1.0003353454057682 2.8050191530671147 -122.40499999999999 19.500000000000004 1.9372235358458398 1.078159688892171 1.0395283679040179 764.50000000000011 1.0301583331438491 -122.04499999999999 2.3579694504399806 3.6984382596013616 2.2844500000000005
decision_type=2 2 2 2 2 2 2 2 2 2 2 2 2 2 2 2 2 2 2 2 2 2 2 2 2 2 2 2 2 2
left_child=1 3 5 9 14 -3 -6 -4 13 -1 22 28 29 25 17 -14 -15 26 -9 -17 -19 -21 -7 -8 -12 -5 -2 -22 -10 -11
right_child=4 2 7 8 6 10 23 18 11 12 24 -13 15 16 -16 19 -18 20 -20 21 27 -23 -24 -25 -26 -27 -28 -29 -30 -31
leaf_value=-0.0064595931219068106 0.028715149470184359 -0.00096355788239346058 0.012291179826756732 -0.016359616499067399 0.0048250415913547052 0.02484547015903342 0.015308833349837361 0.0029139095637121405 0.00058341167522900513 0.012529268236830832 0.0057492882751409907 -0.010335660267637607 -0.022867484534314524 0.015857778303325177 0.034670224226742812 0.025957310680583448 -0.016617625191481626 0.014588554352643638 -0.0034551948901678821 0.014162198877840771 0.04538736838622244 -0.0018031714737793117 0.057698068643609685 0.033573022803944287 0.022464299966615014 0.01034624268522575 0.004979664964197451 0.026241780440040836 -0.0090053339207941171 0.058886638133786619
leaf_count=604 62 246 373 57 521 53 218 1332 865 20 147 2281 48 36 347 69 1616 153 2121 177 91 318 54 137 313 105 166 264 389 25
internal_value=0 -0.0694215 0.0569494 -0.158111 0.391816 0.296973 0.2386 0.005946 -0.197059 0.00710346 0.434179 -0.150348 0.132404 -0.288085 0.515746 0.0858404 -0.318199 0.431986 -0.0199661 0.132069 0.523233 0.0781132 0.828506 0.447145 0.342455 0.0189947 0.228681 0.62299 -0.0478218 0.765667
internal_count=13208 11249 4639 6610 1959 813 876 3826 5349 1261 567 3535 657 1814 1083 612 1652 736 3453 564 508 495 107 355 460 162 228 355 1254 45
shrinkage=0.05


Tree=30
num_leaves=31
num_cat=0
split_feature=0 0 0 5 5 1 6 6 3 1 5 6 5 3 6 5 4 6 6 5 0 1 0 1 5 5 6 4 5 2
split_gain=336.778 78.9548 65.1357 62.7849 35.1241 30.4538 35.3094 27.6825 21.7565 20.0716 16.8391 15.1388 14.3945 13.8763 13.8667 20.8426 13.7109 13.6372 20.2017 13.8784 12.0931 10.4378 9.96025 9.83131 9.44002 9.34801 9.77108 9.24625 12.621 9.02453
threshold=4.8299500000000011 2.8316500000000002 6.5313500000000007 2.5769981659061205 2.7922810111699006 19.500000000000004 37.925000000000004 35.335000000000008 1.0237408913402313 18.500000000000004 2.0004022526146423 37.805000000000007 2.0470840156190957 1.1783196239717981 34.005000000000003 2.1035068204437684 202.50000000000003 36.835000000000008 37.895000000000003 2.5566708279639179 3.8382500000000008 44.500000000000007 2.1355500000000007 32.500000000000007 3.1014239383804605 3.1158292456582264 37.805000000000007 884.50000000000011 3.0004492362982931 3.1840199497575301
decision_type=2 2 2 2 2 2 2 2 2 2 2 2 2 2 2 2 2 2 2 2 2 2 2 2 2 2 2 2 2 2
left_child=1 7 4 5 12 -3 8 14 -7 -4 13 21 -2 -10 22 -16 -11 -9 19 -19 -5 -6 -1 -14 -22 26 -18 28 -24 -17
right_child=2 3 9 20 11 6 -8 17 10 16 -12 -13 23 -15 15 29 25 18 -20 -21 24 -23 27 -25 -26 -27 -28 -29 -30 -31
leaf_value=-0.014387201609500922 0.034108788559882385 -0.0036351488303696328 0.015006421134260926 -0.0071253527560182581 0.0050103029882702351 0.0035114492213164693 -0.007008412788099546 -0.0208771647794396 0.023847813869360836 -0.0060162132605910308 0.012979673749047061 -0.010851129906767476 0.0091404254552617213 0.059915820856889096 0.020312718377739084 0.0067391546503366793 0.036504342999892629 0.0051683102500952463 -0.015659686392098138 -0.01027532730124509 0.0020904546335024769 0.040636747625345991 0.016535332387543678 0.01995005067843391 -0.0056393144629524215 0.017083318421261057 0.018750578908860605 -0.008499972434294829 -0.013806280469135294 -0.0060489300426470336
leaf_count=520 103 579 359 2040 979 410 262 491 240 26 644 159 440 30 101 170 465 241 1024 367 895 21 97 403 707 102 93 455 53 732
internal_value=0 -0.0870791 0.287617 -0.0112732 0.186299 0.12359 0.19525 -0.190632 0.261625 0.491707 0.347481 0.0695967 0.329278 0.557107 -0.11003 -0.0245379 0.591965 -0.271424 -0.227463 -0.0830751 -0.0914429 0.115169 -0.186251 0.28616 -0.0264175 0.620025 0.670908 -0.099018 0.116293 -0.0727752
internal_count=13208 10058 3150 5807 2105 2165 1586 4251 1324 1045 914 1159 946 270 2128 1003 686 2123 1632 608 3642 1000 1125 843 1602 660 558 605 150 902
shrinkage=0.05


Tree=31
num_leaves=31
num_cat=0
split_feature=0 0 5 0 5 6 5 7 6 7 7 6 7 7 6 7 7 6 7 6 7 4 6 7 3 5 4 7 6 6
split_gain=303.981 86.9328 48.2822 45.0963 33.3646 33.212 45.6223 27.1322 33.4347 41.8958 23.4364 37.6954 39.264 18.8003 32.9757 25.853 22.5007 18.0487 15.8827 30.4215 30.303 15.6634 15.5221 15.4771 19.0191 14.9233 14.6185 13.8463 13.8244 13.0653
threshold=5.1186000000000007 3.5482500000000003 2.4076492471711783 7.5196500000000013 3.0218718936381714 38.465000000000011 2.4862516201036873 -118.22499999999998 34.455000000000005 -120.07499999999997 -117.85499999999998 37.605000000000011 -122.40499999999999 -121.895 34.515000000000008 -119.98499999999999 -118.22499999999998 33.935000000000009 -117.55499999999999 35.135000000000012 -121.38499999999998 461.50000000000006 37.805000000000007 -122.04499999999999 1.0616826404518724 1.9372235358458398 233.50000000000003 -117.83499999999999 37.305000000000007 34.065000000000005
decision_type=2 2 2 2 2 2 2 2 2 2 2 2 2 2 2 2 2 2 2 2 2 2 2 2 2 2 2 2 2 2
left_child=1 5 21 4 10 6 7 8 -1 22 11 23 -13 -4 16 28 -15 -12 19 26 -21 -3 -10 -2 -25 -23 -8 -5 -16 -28
right_child=3 2 13 27 -6 -7 18 -9 9 -11 17 12 -14 14 15 -17 -18 -19 -20 20 -22 25 -24 24 -26 -27 29 -29 -30 -31
leaf_value=0.018965684867015671 0.043601028583769769 -0.006724425377615262 0.0069071149484207853 0.031597550967931425 0.0033686313364130146 -0.0154961475689926 0.039660745593719182 -0.0075914743516553689 0.011749353770739275 -0.027764530060812833 0.0088887786257857617 0.033155593446766336 -0.005995761176470567 0.010594041747710045 0.0071291063740563992 -0.029057742679660371 -0.0025530346002817644 -0.027134815541406471 -0.015654490197199118 -0.0034716381593208573 -0.018077265335275743 0.026649427681547183 -0.0035835678054757371 0.017403941052499768 0.036294715682681847 0.010809169209172175 -0.0063811929016429486 0.0129433191109148 -0.011321776815778006 0.00253312590657951
leaf_count=336 107 96 625 459 743 1006 20 575 370 115 202 90 222 446 137 168 1204 42 658 578 921 196 298 446 190 616 1197 127 392 626
internal_value=0 -0.0734404 0.0456757 0.306562 0.236388 -0.142421 -0.112827 0.0247203 0.115441 0.00220783 0.33306 0.397657 0.105958 -0.0159833 -0.0570265 -0.239402 0.0200132 0.0537599 -0.171079 -0.143119 -0.24891 0.247493 0.0981844 0.520147 0.460948 0.292654 -0.0570736 0.551095 -0.130868 -0.0664021
internal_count=13208 10580 3880 2628 2042 6700 5694 1694 1119 783 1299 1055 312 2972 2347 697 1650 244 4000 3342 1499 908 668 743 636 812 1843 586 529 1823
shrinkage=0.05


Tree=32
num_leaves=31
num_cat=0
split_feature=0 0 0 5 5 1 6 6 6 3 1 5 5 4 5 6 5 6 1 0 4 0 1 0 5 1 4 4 5 3
split_gain=275.348 65.1229 54.3781 51.8543 29.5144 26.8503 30.084 22.7858 22.7636 19.1375 17.0484 14.2393 13.5918 12.4814 11.7683 11.3746 17.5359 11.233 10.1287 9.87449 8.91518 8.88277 8.59589 8.35833 8.35272 8.20174 12.5718 8.18993 11.2803 7.97764
threshold=4.8299500000000011 2.8316500000000002 6.5313500000000007 2.5769981659061205 2.973738656133917 19.500000000000004 37.925000000000004 37.955000000000005 35.335000000000008 1.0237408913402313 18.500000000000004 2.1182559652185824 2.1430194805194809 202.50000000000003 2.2915960451977404 34.005000000000003 2.1035068204437684 38.465000000000011 32.500000000000007 3.8382500000000008 745.50000000000011 2.1355500000000007 50.500000000000007 9.1461500000000022 3.1014239383804605 21.500000000000004 1325.5000000000002 884.50000000000011 3.0004492362982931 1.0390322064172677
decision_type=2 2 2 2 2 2 2 2 2 2 2 2 2 2 2 2 2 2 2 2 2 2 2 2 2 2 2 2 2 2
left_child=1 8 4 5 7 -3 9 12 15 -7 23 18 25 -12 17 21 20 -10 -11 -5 -17 -1 -14 -4 -21 26 -2 28 -23 -15
right_child=2 3 10 19 -6 6 -8 -9 14 11 13 -13 22 29 -16 16 -18 -19 -20 24 -22 27 -24 -25 -26 -27 -28 -29 -30 -31
leaf_value=-0.013228789878395708 -0.0041981220203028483 -0.0035823416074823159 0.010149826516021752 -0.0064447866731657715 0.0010655342116402669 0.0030857334852185977 -0.0064825883595528841 -0.0049941168652271467 0.00067820245272172679 0.014983114902980555 -0.0070332353674949933 0.011044827892270721 0.012344800942757942 0.023993003271731674 -0.014379590493103778 0.039497078781176455 -0.0033256418385896463 -0.014462648833259232 0.031756719616517479 0.0020091419640405612 0.0080616779896472372 0.015949744576547468 0.031437104488796899 0.030878890830931129 -0.0052618574853782324 0.040403235552650768 0.043956844464106408 -0.0076576910281789257 -0.012735055534625953 0.035325282385945324
leaf_count=520 33 579 301 2040 834 410 262 152 294 171 26 553 918 410 1619 34 902 210 190 895 67 97 63 58 707 82 23 455 53 250
internal_value=0 -0.0787416 0.260062 -0.0098953 0.167488 0.112667 0.179954 0.263407 -0.172788 0.241221 0.446539 0.321744 0.312754 0.538938 -0.246051 -0.0996969 -0.0222671 -0.11261 0.476227 -0.082753 0.372878 -0.16873 0.271418 0.269976 -0.0239944 0.606599 0.311596 -0.0863498 0.116289 0.565711
internal_count=13208 10058 3150 5807 2105 2165 1586 1271 4251 1324 1045 914 1119 686 2123 2128 1003 504 361 3642 101 1125 981 359 1602 138 56 605 150 660
shrinkage=0.05


Tree=33
num_leaves=31
num_cat=0
split_feature=6 5 7 2 6 7 6 7 7 6 6 7 6 7 6 6 2 6 6 7 7 7 6 7 5 6 7 7 6 6
split_gain=103.891 133.546 99.1589 66.3186 59.303 47.6112 76.9951 105.102 54.7551 55.0744 45.8829 39.6706 39.532 27.0102 54.5514 26.3643 26.0707 24.3653 23.8365 23.2065 22.552 21.2036 19.6246 92.2587 17.6421 16.2187 15.2005 14.0664 13.8301 13.7234
threshold=37.925000000000004 3.1512292738707837 -117.75499999999998 6.4287166085946579 33.915000000000006 -122.31499999999998 34.515000000000008 -120.48499999999999 -118.35499999999998 34.135000000000012 37.585000000000008 -117.175 33.625000000000007 -122.41499999999998 38.695000000000007 34.045000000000009 6.1738705842391317 33.755000000000003 34.045000000000009 -122.10499999999998 -119.33499999999999 -118.395 34.595000000000006 -121.61499999999999 1.6108288976317213 37.665000000000006 -117.79499999999999 -118.18499999999999 33.895000000000003 37.785000000000004
decision_type=2 2 2 2 2 2 2 2 2 2 2 2 2 2 2 2 2 2 2 2 2 2 2 2 2 2 2 2 2 2
left_child=1 2 3 5 11 29 8 10 9 18 19 24 -10 14 -2 17 26 -14 21 -8 -11 -7 27 25 -4 -24 -3 -5 -23 -1
right_child=13 16 4 22 -6 6 7 -9 12 20 -12 -13 15 -15 -16 -17 -18 -19 -20 -21 -22 28 23 -25 -26 -27 -28 -29 -30 -31
leaf_value=0.018305906405480268 0.014346676218972823 -0.0058548483959096811 -0.027065184486231637 0.038689933171492517 -0.021311353739729037 0.03848359445038689 0.033251154812425375 -0.02040493247389322 0.057564872420496419 0.038224458288780211 -0.0050445703084193863 -0.0079185444903048224 0.015222377617353162 -0.012501522833287296 -0.016834064726322231 0.01365945745080601 0.0033917500127962049 -0.0039243526797318557 0.057716743144719453 0.0096606354924678155 0.0050558443986945074 0.028486533907707778 0.037204320232963148 -0.021454756698403799 0.013818650611963629 0.015398202712284018 -0.01528279224268141 0.020128786381528888 -0.0057534795872674419 0.040226217227656041
leaf_count=297 306 2566 28 213 417 196 125 559 36 59 590 578 208 1772 259 528 680 826 89 628 390 60 205 128 458 146 513 196 58 94
internal_value=0 0.0430784 0.123657 0.184213 -0.106585 0.137255 0.107224 -0.0437369 0.224419 0.429157 0.107922 0.0186879 0.11526 -0.189325 0.00106408 0.091382 -0.109376 -0.00145572 0.697522 0.271534 0.188286 0.568043 0.435023 0.297654 0.229264 0.562679 -0.148513 0.595902 0.233134 0.471515
internal_count=13208 10871 7112 5631 1481 4743 4352 1902 2450 852 1343 1064 1598 2337 565 1562 3759 1034 403 753 449 314 888 479 486 351 3079 409 118 391
shrinkage=0.05


Tree=34
num_leaves=31
num_cat=0
split_feature=6 5 7 2 6 7 6 7 7 6 6 7 6 7 6 6 2 7 6 7 6 7 5 6 7 6 6 7 7 7
split_gain=93.7613 120.525 89.4909 59.8525 53.521 42.9691 69.4881 94.8547 49.4165 49.7609 41.4093 35.8027 35.6777 24.3767 49.2326 23.7938 23.5288 22.4068 21.9897 20.9439 17.7112 83.2635 15.922 14.6533 14.1523 14.2041 14.4782 13.7185 13.0649 12.9618
threshold=37.925000000000004 3.1512292738707837 -117.75499999999998 6.4287166085946579 33.915000000000006 -122.31499999999998 34.515000000000008 -120.48499999999999 -118.35499999999998 34.155000000000008 37.585000000000008 -117.175 33.625000000000007 -122.41499999999998 38.695000000000007 34.045000000000009 6.1738705842391317 -119.33499999999999 33.755000000000003 -122.10499999999998 34.595000000000006 -121.61499999999999 1.6108288976317213 37.645000000000003 -118.41499999999998 34.045000000000009 34.07500000000001 -117.79499999999999 -118.05499999999999 -121.24499999999999
decision_type=2 2 2 2 2 2 2 2 2 2 2 2 2 2 2 2 2 2 2 2 2 2 2 2 2 2 2 2 2 2
left_child=1 2 3 5 11 -1 8 10 9 24 19 22 -10 14 -2 18 27 -11 28 -8 -5 23 -4 -22 -7 -26 -27 -3 -14 -18
right_child=13 16 4 20 -6 6 7 -9 12 17 -12 -13 15 -15 -16 -17 29 -19 -20 -21 21 -23 -24 -25 25 26 -28 -29 -30 -31
leaf_value=0.02239696340945959 0.013629342344900734 -0.005562105988412649 -0.025711924975205747 0.02830534969384766 -0.02024578602283264 0.042027889581264133 0.031588597196340565 -0.019384685856721671 0.054686628727035391 0.036313235322487057 -0.0047923418075601978 -0.007522617290349848 0.03733991640256136 -0.011876446670861733 -0.015992361418390468 0.012976484524992747 0.017557670477435752 0.0030042154584745216 -0.0037281350117936716 0.0091776037150118981 0.035501337027086036 -0.020382018972304652 0.013127718118703662 0.014832228341689896 0.01596511279451935 0.066885787248611453 0.023074093697042289 -0.014518652596531598 0.0075976614602041087 -0.00010201321092740662
leaf_count=391 306 2566 28 409 417 196 125 559 36 59 590 578 48 1772 259 528 128 350 826 628 202 128 458 149 170 33 44 513 160 552
internal_value=0 0.0409244 0.117474 0.175002 -0.101256 0.130393 0.101863 -0.0415501 0.213198 0.407699 0.102526 0.0177535 0.109497 -0.179859 0.00101087 0.0868129 -0.103907 0.156184 -0.00138293 0.257958 0.413272 0.282771 0.217801 0.534545 0.639911 0.480693 0.837011 -0.141088 0.289225 0.0644433
internal_count=13208 10871 7112 5631 1481 4743 4352 1902 2450 852 1343 1064 1598 2337 565 1562 3759 409 1034 753 888 479 486 351 443 247 77 3079 208 680
shrinkage=0.05


Tree=35
num_leaves=31
num_cat=0
split_feature=6 7 6 7 7 2 6 7 7 7 6 6 6 6 7 7 7 6 7 6 5 6 7 7 7 6 6 6 5 7
split_gain=83.7795 110.305 139.61 172.448 69.4206 47.7951 45.423 58.4203 43.8212 40.9731 38.7851 38.4656 61.6116 34.6281 59.2674 36.0955 28.3009 27.0212 22.9266 40.3905 19.6181 18.2072 19.7716 18.1419 17.6395 14.6881 13.7653 13.7028 12.0756 14.4382
threshold=37.925000000000004 -121.86499999999999 34.515000000000008 -118.30499999999999 -120.07499999999997 5.5511074737062067 34.165000000000006 -118.37499999999999 -119.33499999999999 -117.49499999999999 33.905000000000008 34.045000000000009 33.895000000000003 37.605000000000011 -122.40499999999999 -122.08499999999999 -116.24499999999999 37.765000000000008 -122.40499999999999 38.695000000000007 2.3171126371457893 34.105000000000011 -118.00499999999998 -116.60499999999998 -117.23499999999999 34.07500000000001 38.215000000000011 37.275000000000013 3.9308226495726499 -117.77499999999999
decision_type=2 2 2 2 2 2 2 2 2 2 2 2 2 2 2 2 2 2 2 2 2 2 2 2 2 2 2 2 2 2
left_child=1 13 3 6 27 23 7 -3 -8 20 16 12 -9 15 17 -1 24 -15 19 26 -7 -22 -23 28 -11 -13 -2 -4 29 -5
right_child=18 2 4 5 -6 9 8 11 -10 10 -12 25 -14 14 -16 -17 -18 -19 -20 -21 21 22 -24 -25 -26 -27 -28 -29 -30 -31
leaf_value=0.034303632957603913 0.029925108388723698 0.035581711182417063 0.0033657959380235902 -0.00019319462740537575 -0.021944089215219752 0.03752952059942552 0.036897861710922041 0.032117998353331477 0.0026124797451227686 0.02365912104579744 -0.021716449045359128 0.050580770821280541 -0.0134372240182399 0.010866818914613503 -0.0018138752057909723 0.01280784385557108 -0.03696239221750236 0.036572868341914151 -0.011380472787369689 -0.014261199876161451 0.0060632454074847344 0.034759627291489216 0.00045395310421193405 -0.026314091484993696 0.0013177020391837383 0.019295143968376675 0.0060605063252975391 -0.0087302839694814935 -0.010530779556492531 -0.0079268739523615499
leaf_count=290 85 493 458 1600 961 66 108 111 680 113 221 62 224 242 739 598 41 177 1745 254 797 126 63 100 405 95 209 479 697 969
internal_value=0 0.0386939 -0.00959 0.0558768 -0.250037 -0.0359815 0.325183 0.468345 0.14623 0.0939959 -0.0796832 0.224561 0.0331439 0.247995 0.134071 0.396557 0.0605257 0.434519 -0.171574 0.00685895 0.222769 0.187439 0.466488 -0.106724 0.123828 0.633 0.259203 -0.0563558 -0.0938776 -0.0622052
internal_count=13208 10915 8869 6971 1898 5198 1773 985 788 1832 780 492 335 2046 1158 888 559 419 2293 548 1052 986 189 3366 518 157 294 937 3266 2569
shrinkage=0.05


Tree=36
num_leaves=31
num_cat=0
split_feature=0 0 5 1 3 7 5 1 7 7 7 7 5 4 7 7 4 7 5 7 7 3 0 5 0 0 3 0 4 2
split_gain=209.627 72.2787 43.222 24.4951 22.5685 20.7798 20.4251 18.6792 22.4741 17.0108 27.4427 15.681 14.3318 14.2983 13.8121 16.9739 13.133 12.956 12.908 12.1629 10.5558 10.3124 9.87839 9.23621 9.16115 8.99149 8.81479 7.6928 6.78084 6.64181
threshold=5.7116000000000016 3.4915500000000006 2.5368557227480086 17.500000000000004 1.0336667000033339 -116.50499999999998 3.1512292738707837 51.500000000000007 -122.33499999999999 -118.69499999999998 -118.29499999999999 -118.02499999999999 1.6543663735009693 446.50000000000006 -118.79499999999999 -122.01499999999999 172.00000000000003 -121.70499999999998 1.8188163744845542 -122.22499999999998 -116.60499999999998 1.0390322064172677 10.338500000000002 2.4144967952668561 8.3976000000000024 4.4315000000000007 1.0390322064172677 2.5262000000000007 1488.5000000000002 5.4531598254086191
decision_type=2 2 2 2 2 2 2 2 2 2 2 2 2 2 2 2 2 2 2 2 2 2 2 2 2 2 2 2 2 2
left_child=1 5 3 -3 -5 7 11 9 -9 17 12 14 -11 -6 15 -2 -12 27 -15 -4 -21 24 29 -17 -13 -20 -25 -1 -14 -8
right_child=6 2 19 4 13 -7 22 8 -10 10 16 21 28 18 -16 23 -18 -19 25 20 -22 -23 -24 26 -26 -27 -28 -29 -30 -31
leaf_value=-0.0092760944815670401 0.024423968820273145 -0.0024152697451319018 0.0080558581705163449 0.0043235743492265645 -0.0058424630934106455 -0.023894752561896802 -0.023327769013121724 0.024283540185643448 -0.0020570804133442128 0.045742457165298143 0.026440489244827583 -0.0032735515431519232 -0.00075425795536359849 0.037616958704583869 0.029844867916106372 -0.018219144775842629 -0.006321309964803643 -0.011426094403103944 0.012591917261797418 -0.0017366988977517697 -0.037308829668022341 0.019221539638047808 0.033195879840941141 0.003887263908119061 0.027376836159362879 0.025882993156682205 0.024191363727385624 -0.0010285461787315178 0.010124939284863299 0.0061836550762653167
leaf_count=504 382 353 335 485 56 156 20 109 315 22 31 153 290 94 369 30 2308 1829 341 3021 21 153 33 147 29 203 84 644 283 408
internal_value=0 -0.0480905 0.0434708 0.182784 0.251974 -0.117336 0.318423 -0.108457 0.0942889 -0.123001 -0.0689637 0.380603 0.122788 0.367634 0.442681 0.35418 -0.117742 -0.176257 0.410159 -0.0197296 -0.0396453 0.193073 0.136739 0.157619 0.032206 0.351033 0.225411 -0.0929884 0.0923778 0.0960923
internal_count=13208 11400 4909 1532 1179 6491 1808 6335 424 5911 2934 1347 595 694 1012 643 2339 2977 638 3377 3042 335 461 261 182 544 231 1148 573 428
shrinkage=0.05


Tree=37
num_leaves=31
num_cat=0
split_feature=0 0 5 6 7 6 7 7 5 5 7 1 6 6 6 7 6 7 6 7 6 1 5 7 6 7 6 7 6 5
split_gain=189.198 62.0888 36.9936 22.1166 27.5121 21.6691 44.4919 25.6043 21.5004 17.541 17.4144 17.362 21.9757 16.7382 15.0549 14.3793 24.3596 20.16 22.524 17.8719 17.7228 12.9019 10.7262 10.5693 10.4749 15.146 10.6049 12.0424 10.2151 12.5057
threshold=5.5878500000000004 3.4727000000000001 2.4011771112761759 39.405000000000008 -122.38499999999998 35.335000000000008 -118.29499999999999 -121.70499999999998 3.1512292738707837 1.6108288976317213 -116.50499999999998 19.500000000000004 37.885000000000012 38.005000000000003 37.605000000000011 -118.02499999999999 34.165000000000006 -122.01499999999999 37.605000000000011 -122.40499999999999 33.645000000000003 50.500000000000007 1.8188163744845542 -116.60499999999998 33.875000000000007 -117.45499999999998 34.015000000000008 -118.22499999999998 38.545000000000009 3.2320015912707438
decision_type=2 2 2 2 2 2 2 2 2 2 2 2 2 2 2 2 2 2 2 2 2 2 2 2 2 2 2 2 2 2
left_child=1 3 11 4 13 6 9 14 15 -6 24 -3 22 -1 -7 16 -2 18 -18 -20 -17 23 -13 28 -8 26 27 -26 29 -4
right_child=8 2 21 -5 5 7 10 -9 -10 -11 -12 12 -14 -15 -16 20 17 -19 19 -21 -22 -23 -24 -25 25 -27 -28 -29 -30 -31
leaf_value=0.020401759862774847 0.032001353653707772 -6.5730430254585699e-05 0.0020386697181443334 -0.017559084051148328 0.04647843124413932 0.0089540210430174485 -0.0011441623221171923 -0.01300878103452128 0.0056335466161467713 0.005513778913209557 -0.022686484877861318 0.031597146768518519 -0.0053681483098884089 -0.0016805965761886911 -0.0064159205318773506 0.019863222775618652 0.036621397939158105 0.0069548952660275611 0.029858258295859343 0.0014999832774080554 -0.0024825336648084759 0.015726205391198896 0.014675934159178184 -0.033404293715953826 -0.019637640695935408 -0.018292541187402599 -0.0013447294578824718 -0.0042521500802772732 -0.010384642547005534 -0.0045671057926888331
leaf_count=164 321 308 2279 365 27 226 902 1590 509 813 155 113 124 180 540 180 177 359 93 138 175 119 547 25 223 287 671 296 257 1045
internal_value=0 -0.0478647 0.0380041 -0.112103 -0.0977362 -0.114226 -0.0628389 -0.187818 0.28938 0.13661 -0.128955 0.199859 0.278892 0.176941 -0.0376237 0.351711 0.408732 0.311932 0.46401 0.258339 0.176954 -0.00944451 0.351461 -0.0201357 -0.107794 -0.159649 -0.109918 -0.217257 -0.0156121 -0.000761115
internal_count=13208 11256 4817 6439 6074 5730 3374 2356 1952 840 2534 1092 784 344 766 1443 1088 767 408 231 355 3725 660 3606 2379 1477 1190 519 3581 3324
shrinkage=0.05


Tree=38
num_leaves=31
num_cat=0
split_feature=0 0 1 0 7 5 5 7 6 7 6 6 0 7 6 6 6 7 6 1 3 4 7 7 3 4 7 6 5 7
split_gain=171.553 45.4734 35.8567 26.9922 22.4395 20.4638 19.7509 17.5909 29.8243 18.4099 22.783 16.7505 16.6072 16.261 16.1815 15.3889 13.3189 16.9875 13.0842 13.0441 17.1561 13.9181 11.6178 10.1257 9.45926 9.01014 8.8807 12.7973 8.67193 8.36332
threshold=5.1453500000000005 2.5667500000000003 47.500000000000007 7.9889500000000009 -122.40499999999999 3.1584238253951189 2.8050191530671147 -118.01499999999999 34.165000000000006 -122.02499999999999 37.605000000000011 37.765000000000008 3.5324500000000003 -122.40499999999999 33.655000000000008 33.995000000000012 35.335000000000008 -118.29499999999999 37.645000000000003 15.500000000000002 1.0383542185554175 373.50000000000006 -116.90499999999999 -117.75499999999998 1.2054290603328996 172.00000000000003 -121.65499999999999 38.675000000000004 2.6001824817518253 -118.30499999999999
decision_type=2 2 2 2 2 2 2 2 2 2 2 2 2 2 2 2 2 2 2 2 2 2 2 2 2 2 2 2 2 2
left_child=1 16 6 5 11 7 12 8 15 10 -10 -4 -3 -12 23 29 17 -1 28 -14 -21 -22 25 -9 -23 -19 27 -18 -6 -2
right_child=3 2 4 -5 18 -7 -8 14 9 -11 13 -13 19 -15 -16 -17 26 22 -20 20 21 24 -24 -25 -26 -27 -28 -29 -30 -31
leaf_value=0.0056523105193662963 0.027548365737311543 -0.0025771694880021337 0.0095894113135960041 0.022655937374536327 0.019557083883539661 0.0011893657537877709 -0.0043294995135014789 0.039034148029256338 0.034602051334627341 0.0039363875016364723 0.025156488726064172 0.0387123676079612 -0.0042043476424343355 -0.0018075416765540192 -0.0060137844096165433 0.040224594789712381 -0.00047646334097908394 0.025536921349070641 -0.0063377449892140615 0.00077595568327798589 -0.01989751064190359 0.011597229235727962 -0.021351851737053378 0.0086472542896646916 0.032669781102670423 -0.0060570843342209078 -0.013756023711300703 -0.014869423352448265 0.00061042716893937115 0.0051993993311447821
leaf_count=333 100 1593 94 453 146 579 3312 33 141 479 94 104 347 138 219 147 387 23 168 663 33 651 127 162 58 1197 995 257 103 72
internal_value=0 -0.0547743 -0.0105066 0.231147 0.220519 0.184681 -0.0318497 0.243456 0.306096 0.208443 0.375022 0.497726 0.0223506 0.182351 0.0662784 0.56691 -0.151766 -0.0891958 0.0888953 0.0895385 0.13242 0.236874 -0.139193 0.275793 0.266422 -0.109229 -0.215901 -0.124405 0.234394 0.36386
internal_count=13208 10591 7272 2617 615 2164 6657 1585 1171 852 373 198 3345 232 414 319 3319 1680 417 1752 1405 742 1347 195 709 1220 1639 644 249 172
shrinkage=0.05


Tree=39
num_leaves=31
num_cat=0
split_feature=0 0 5 6 7 6 7 7 7 5 5 6 1 6 6 7 1 7 6 7 6 6 7 6 7 6 7 7 5 7
split_gain=156.067 53.6798 31.9774 21.8063 26.8691 19.2882 42.5076 27.7534 16.1904 15.2543 15.2114 14.7443 14.1002 17.6661 13.396 20.2293 12.9326 12.1453 20.1263 16.3524 14.8057 10.037 10.6143 9.83992 14.2325 18.0476 12.5552 12.385 12.3633 8.94293
